4039 64
3437 0.26782924 -0.4241228 0.6414723 0.16341068 -0.18781893 -0.31082213 0.1361014 0.4536001 -0.7906743 -0.18733248 0.97472566 0.45431966 -0.30593517 -0.32731196 0.26982224 -0.01167356 -0.4310514 -0.075853236 -0.4829578 0.07106928 0.44713745 0.41647604 0.17264476 -0.6374271 -0.7095431 -0.14323197 -0.77876085 0.3663074 -0.10090514 -0.7025233 0.10580162 -0.1589577 0.60015637 -0.079607986 0.31142807 0.28966406 0.42621168 0.65663344 -0.21842207 -0.08878984 0.13555855 0.032116503 -0.87223667 -0.51205516 0.17725438 -0.24624781 -0.60650736 0.2884867 0.56634486 0.20316993 0.7339065 -0.5143076 -0.19661094 -0.016213251 0.16829106 -0.6605694 0.11910865 -0.3270169 -0.12607646 -0.03332819 -0.05038118 -0.17860717 -0.42565688 0.1571057
107 0.3125288 -0.45760328 -0.010846426 0.14943437 -0.13342963 -0.27348176 -0.055251326 0.0005304813 -0.5570871 -0.22369425 0.18375285 -0.09297432 0.21387199 -0.24873991 0.29025862 -0.062729575 -0.28085494 -0.15840125 0.32027924 0.6404831 0.29921404 0.07119423 0.16547076 -0.10708786 -0.111682385 0.27892345 0.07918026 -0.021131935 0.18226135 -0.36988616 -0.098247185 0.4380229 -0.4061613 -0.063149706 -0.08969455 0.54535735 -0.5164682 -0.09365514 -0.0012632246 0.10854288 0.21754351 0.2519164 -0.93826634 -0.44142196 -0.07422889 0.023767194 0.12513195 -0.5141284 -0.69796866 0.4049061 0.39738986 0.44705945 0.11358954 0.056884024 -0.19492757 -0.23170257 -0.4376678 0.14288795 0.1152779 0.56241757 -0.1246244 -0.6318271 -0.33172303 0.2117516
1684 0.023584852 0.3870098 0.020449338 -0.3218177 -0.11356939 -0.29324514 0.37149838 -0.29643396 -0.5717008 0.12913187 1.0966985 0.49704066 0.1576518 -0.32190746 -0.4813378 -0.15356992 -0.010693544 -0.044723414 -0.09888698 -0.077184916 0.78122056 0.20692332 -0.14943898 -0.16615745 -0.5471332 0.48203784 -0.43699652 0.27401382 -0.23156089 0.08114199 0.017589493 -0.21686864 -0.5251835 0.23012817 -0.37428302 0.1889515 -0.111305125 0.24339022 -0.39076996 -0.12814729 0.1600193 0.42231372 -0.40336677 -0.18742754 0.6237764 0.37272257 -0.23470955 -0.3383313 -0.73638934 0.16130598 0.4879397 0.67033654 -0.37361547 -0.008643551 0.2135063 -0.023898395 -0.089410745 -0.7263698 -0.3987516 0.37292117 0.034884464 -0.26621932 0.042560026 -0.5952256
0 0.5910644 0.33872232 -0.31341988 0.12368385 0.15662071 -0.5398679 0.4174633 0.14336465 -0.73298657 -0.4128754 0.09205026 -0.20866248 0.38524562 -0.4267878 -0.39921427 0.023877881 -0.19627467 -0.3132215 -0.41685843 0.21369687 0.38329965 -0.08208629 0.70439506 -0.8477134 -0.16198766 0.7871087 -0.16228195 -0.013163798 -0.56140006 -0.9348111 0.024467178 -0.92741966 0.11526471 -0.19574381 0.6843286 0.33059126 0.49790275 0.026052302 0.20472153 -0.6380433 -0.6867366 0.8726634 -0.45431578 -0.4671609 0.053516813 0.35709018 -0.47461593 0.086227946 -0.17283922 -0.03080215 -0.05094155 0.49162924 0.39419928 -0.016262894 -0.13366501 -0.08434515 -0.020099444 -0.3560529 -0.046509158 0.32273117 -0.67964613 -0.64709795 -0.13997406 0.12078311
1912 1.0466161 -0.32437262 0.22715683 0.060904562 -0.4790858 -0.5495037 0.34437326 -0.08328709 -1.1045394 0.2857564 0.8238907 -0.20960125 -0.41642103 -0.42572987 0.15060239 0.1726119 -0.4423464 0.36922258 -0.31258434 -0.25802848 -0.08733512 0.19111167 0.19770272 -0.044901177 0.4458869 0.43396628 -0.48396033 0.31133762 -1.0339128 -0.25515646 -0.6023566 -0.39828053 0.019424645 -0.13609569 0.19497465 0.047148447 -0.06941769 -0.7993903 0.28931725 -0.08708388 0.3937839 0.603852 0.5425749 0.09793406 -0.37617862 0.3086535 -0.29415706 0.08128046 -0.048974928 0.38551518 0.13463193 0.0036137705 0.0056061344 -0.34135333 -0.23430146 -0.28057492 -0.22428937 -0.23729353 0.16222262 0.0554046 -0.4684806 -0.35707766 -0.33797458 -0.076646745
686 1.349432 -0.4993147 0.18816626 -0.38249606 -0.26132154 0.17433406 0.1420037 0.21669838 -0.6131577 0.12135876 1.1753275 0.04887131 0.26460838 -0.071309164 0.0590363 1.3613825 0.13680504 -0.9128335 -0.4307569 0.5796512 0.62949085 0.2977328 0.30731344 -0.21694028 0.13508628 0.53373426 0.17890562 0.04613242 -0.7421347 -0.49821714 -0.028404603 -0.5213838 -0.31438127 0.13739856 -0.33124867 -0.21815309 0.30656418 0.04587485 -0.24786745 -0.0691033 -0.3873338 0.59696674 -0.46071398 -0.33276752 0.75414807 -0.6601247 0.19848666 0.47749314 -0.16625579 -0.30629572 0.73278874 -0.12732191 -0.3727087 0.28287587 0.010865045 -1.0075586 0.39508778 -0.7238695 0.07206447 0.2037054 -0.5164105 0.13857454 -0.55142504 0.37417296
3980 0.9291267 -0.58029324 0.3881628 0.51513344 -0.22217898 -0.57229376 0.10381501 0.12703489 -0.893895 -0.29029527 1.1511682 -0.50632656 0.4303364 -0.30120304 -0.6264448 -0.061996076 -0.84547627 0.19361876 -0.57064 -0.41288188 0.5913582 0.16822872 0.16562158 -0.022026513 -0.0059761424 1.1462473 -0.47977072 0.23787265 -0.52078044 -0.98958576 0.50230765 -0.7565134 -0.5710227 0.4976207 0.7650073 0.06850261 0.86358607 -0.6296384 -0.22133075 0.6079372 -0.041487288 -0.07268141 -0.4989391 0.18139368 -0.22366937 -0.051552873 0.9033365 0.2895333 -0.30679554 -0.07522862 1.3216149 -0.17162731 -0.3086338 0.42468438 -0.0054417173 -0.29340354 -0.006037324 -0.456714 -0.44377163 1.1312782 0.36821374 -0.44442165 -0.07578276 0.57053185
348 0.55493355 -0.4822895 0.15264882 0.21736303 0.076135255 -0.52623415 -0.07162841 -0.051190965 -1.0550306 -0.34830195 -0.22379118 0.035426464 0.4777721 -0.5384434 -0.10875498 0.3618466 -0.5179427 0.20567097 0.31237113 -0.0704999 0.13070562 -0.320603 -0.096043 -0.053765792 -0.29725283 0.4610586 -0.36503476 0.12660128 0.09740385 -0.2630088 0.21679837 -0.37627983 0.16353199 -0.2698026 -0.0074705095 -0.01213932 0.099196844 -0.67828786 0.5150723 -0.56322414 -0.47913387 0.36857226 -0.27746978 -1.3562677 0.31109762 0.06543891 0.31551763 -0.065613195 0.36413106 0.08203239 0.6522586 0.26965216 -0.19703594 -0.010338623 0.35068262 -0.73121196 -0.21578601 -0.27066255 0.18424484 0.8452833 -0.0765677 -0.6978707 -0.32949683 0.34514242
414 0.4200531 -0.16513835 -0.37992752 -0.16682006 -0.06354017 -0.2793703 -0.3876685 -0.13476412 -0.97791964 -0.475889 0.46614778 -0.60848117 0.43773764 -0.46117303 0.12296944 -0.3306353 -0.41325662 0.49018788 -0.13954376 -0.03615324 -0.04745276 -0.53629696 -0.00257218 -0.35799822 -0.32927278 0.6897385 -0.027138548 -0.21056505 0.28747815 -0.5695586 -0.027971946 -0.20250148 -0.32564366 0.13714331 0.22493614 -0.13441876 0.4532457 -0.72818273 0.39212945 -0.37697682 -0.059806067 0.31281602 -0.657282 -0.52452594 0.5383062 -0.15346877 0.07865085 -0.042394035 0.16630656 0.035489097 0.89309514 -0.25673354 -0.41626817 -0.060593855 0.24802756 -0.57187074 0.09455251 -0.623451 -0.033767518 1.047717 0.034087926 -0.4869426 -0.11896622 0.7927138
483 0.5783905 -0.40138653 -0.29400316 -0.056679986 -0.33818704 -0.4636876 -0.5330161 0.07294949 -0.7873276 -0.36855307 0.010371458 -0.21437857 0.1997796 -0.10396904 0.24674347 0.30161116 -0.6264786 0.2741237 0.32524762 0.42091534 0.45392853 -0.54660606 -0.20300677 -0.21798557 -0.17957215 0.45463967 -0.08506641 0.09482309 0.21094896 -0.040253937 -0.51301175 -0.18751584 0.21779153 -0.3145722 -0.13526535 0.40542045 0.08751816 -0.46867168 0.28841388 0.23535484 0.044370815 0.36339113 -0.9170356 -0.82421076 -0.031525433 0.075559 0.23882054 -0.28708836 -0.10015242 0.46513635 0.51991403 -0.060189653 -0.018349456 -0.14383215 0.2340304 -0.5521639 0.27934903 0.08985644 -0.21772847 1.2982955 -0.16480424 -0.38656482 -0.46918583 0.44527543
3830 0.5749298 -0.3411542 0.70093936 -0.28839055 0.3128763 -0.39366513 0.4899524 0.14440913 -0.6527069 -0.15028101 0.89478076 0.5328898 -0.2522307 -0.3242805 0.21636212 -0.49941206 -0.54830456 -0.4259716 -0.43047237 0.70937717 0.17744993 0.2264884 -0.12875684 -0.8577007 -0.9692538 -0.008408947 -0.71613795 0.26212618 -0.16649982 -0.64574033 -0.1931103 0.3449721 0.13334273 -0.40027732 0.52915233 0.18266465 0.5045675 0.64586234 -0.7686674 0.21292077 -0.038895123 -0.059297077 -0.56751835 0.22656196 0.19759871 -0.38490105 -0.43737668 0.34045595 0.7214418 0.01141054 1.0993972 -0.1647381 0.13738321 -0.4012374 0.21425167 -0.8539058 0.061099134 0.31217694 -0.25853324 0.19906954 -0.32224464 -0.42085353 -0.45508865 0.015667293
698 1.0861875 -0.33556423 0.62434006 -0.9129862 -0.2503092 -0.07022615 0.2500479 0.45284536 -0.04415858 0.18045506 0.9572939 0.61551136 0.24298482 -0.18726954 -0.10328803 0.5831588 -0.26669982 -1.0892085 -0.5874425 0.28156134 0.61536384 0.5871109 0.11057572 -0.11141542 -0.29890603 0.39775836 -0.25162882 0.5190723 -0.2423066 -0.67150426 -0.34171012 -0.22719705 -0.09971912 0.046099268 -0.17634921 -0.097204246 0.26422685 0.3486879 -0.2051461 0.1892145 -0.060873616 0.36302176 -0.3485236 -0.65935224 0.79241776 -1.0686501 -0.542951 0.36506853 0.07004963 -0.3618704 0.5434656 0.09639393 -0.0019933102 0.27675524 0.019564472 -0.6125955 0.6116963 -0.47896388 0.26273623 0.30955026 -0.4327505 -0.0064808098 -0.4852188 0.3034762
376 0.6143356 -0.75321525 -0.22274426 -0.070677765 -0.17210594 -0.35846564 -0.12762652 0.09635072 -0.7810603 -0.36589456 0.15448277 -0.4216281 0.23230876 -0.5125533 -0.12517588 0.29339993 -0.7866345 0.39400437 0.2467388 0.08165197 0.28761005 -0.38752872 -0.077610284 0.055071495 -0.36434612 0.4973595 -0.4114771 0.22984435 0.44869968 -0.3269951 -0.033617426 0.17678776 0.05030111 -0.48504812 -0.10833317 0.05431335 0.36090043 -0.33621588 0.41070998 -0.3389051 -0.08075774 0.6142914 -0.2452664 -1.0797714 0.064694926 -0.006892634 0.50289756 -0.23560713 -0.20838524 0.14611274 0.72790515 -0.21265584 0.073465995 -0.07520663 0.23614947 -0.680171 0.08230837 -0.43727627 0.08600703 0.76466227 0.37357488 -0.45459175 -0.0032388722 0.6127951
56 0.5736206 0.35570696 -0.2862884 0.43197906 -0.05639496 -0.17078575 0.43720362 -0.18047363 -0.8399675 -0.28435636 -0.035699457 -0.29521292 0.11962248 -0.645012 -0.14862123 0.1412572 -0.18518217 -0.67771274 -0.2998403 0.40150833 0.275031 -0.095915146 0.5790561 -1.0524439 -0.58753204 1.1210396 0.12113551 0.15902159 -0.57676214 -0.5772153 0.38895682 -0.8364753 0.4593687 -0.17166178 0.21618903 0.25864553 0.54258406 0.12029694 -0.07329592 -0.4088267 -0.4167166 0.7664369 0.22358449 0.050179444 0.07426664 -0.15010056 -0.33542362 -0.25947616 0.051123835 0.00068674586 -0.043987136 0.6533227 0.6442608 0.19567044 -0.1004058 -0.5166209 0.26705727 -0.17882898 -0.67285126 0.40158972 -0.8674443 -0.56327575 -0.3610863 0.33621848
67 0.8116785 0.13262768 -0.18980636 0.48030373 0.08281533 -0.21710551 0.34002188 -0.08456156 -0.7849792 -0.17393202 0.2976003 -0.3538298 0.22504988 -0.7556205 -0.25544173 -0.10313587 -0.088946894 -0.5223721 -0.08028184 0.529536 0.24276094 0.07963549 0.7438384 -1.3970405 -0.50187963 0.9947369 -0.06597324 0.2523611 -0.52864087 -0.6133358 0.16822173 -0.74998945 0.5974249 -0.012305231 0.15235777 0.046772595 0.7483353 -0.05196327 0.08891524 -0.35003948 -0.6521741 0.64397603 0.0819175 -0.009176258 0.33029997 0.13407703 -0.47216493 -0.3088564 -0.07539449 0.00238554 -0.109122954 0.5766383 0.53390795 0.25115865 -0.25916862 -0.3895921 0.3519885 -0.27979735 -0.4770597 0.23480408 -0.5988522 -0.60523444 0.10706483 0.0937559
3596 0.49040452 -0.18615852 0.7243103 -0.1196819 -0.18437004 -0.44637546 0.28475478 0.43708646 -0.3189729 -0.11465109 1.0619231 0.6398203 0.22352462 -0.6875665 0.33994883 -0.11227909 -0.79807234 -0.23631659 -0.43174607 0.59938514 0.26449797 0.7077141 -0.26789957 -0.7377487 -0.96783864 -0.09734668 -0.60629505 -0.017902547 -0.053451493 -0.66108996 0.00011023171 -0.14990106 0.1608374 -0.5440429 0.3184329 0.13854726 0.33836037 0.52864057 0.013966562 -0.3021867 0.023565924 0.19525525 -0.12610091 -0.31124058 0.115903236 -0.6122838 -0.48218805 0.16577338 0.479987 -0.12789528 0.85593116 -0.5951859 0.30447817 -0.30781224 0.43383333 -0.5917751 -0.30443838 0.13314551 -0.17068279 -0.024895722 -0.30231458 -0.5166748 -0.7495167 -0.10800695
1888 0.54431415 -0.90983737 0.31164068 0.008422037 0.032414034 -0.3615488 0.13119249 -0.1979641 -0.6267606 -0.052721184 0.38328892 -0.8024867 0.016862938 -0.11315298 0.1377141 0.13272528 -0.6225523 -0.094224095 0.40879688 0.8305636 0.45561728 0.2506884 -0.2309234 -0.21411157 -0.16059273 0.3116699 -0.15406848 -0.06785476 -0.0042085345 0.1457394 0.34870958 -0.007591769 -0.24404825 -0.27712008 0.016346864 0.38530508 -0.24818118 -0.35569182 -0.38904044 0.15113817 0.20620206 0.19228978 -0.88622296 -0.06252034 0.64356303 0.042218406 0.0552742 -0.37274396 -0.1732826 0.07312623 0.055017885 0.40773404 0.3884496 0.28417102 -0.019248033 0.02080812 -0.38360494 -0.24157563 -0.110088274 0.022133473 -0.2766338 -0.6439754 -0.028297221 0.37956548
828 1.3430228 -0.5127471 0.22949098 -0.35932654 -0.12788203 0.19517131 0.1755012 0.27240717 -0.36750755 0.06613821 1.2186456 0.14501236 0.3619662 0.23468691 0.20858982 1.3202331 -0.08570325 -0.93668497 -0.026305242 0.4595743 0.5241632 0.23227324 0.14041826 -0.30559647 -0.29367384 0.8404092 0.14133717 0.2768727 -0.41492674 -0.3932987 -0.21718681 -0.5543067 0.16896674 -0.095608436 -0.5721204 -0.20190708 0.11144403 0.024172423 -0.04499238 -0.009245825 -0.21664558 0.7548523 -0.36506844 -0.8008499 0.85955673 -0.5127177 -0.27512053 0.07917529 -0.11965482 -0.30117962 0.6342555 -0.3118394 -0.27123502 0.40706795 -0.011957825 -0.874752 0.45503685 -0.69644386 0.46068907 0.019512959 -0.65914774 0.028117357 -0.36894202 -0.006593044
271 0.68508095 0.09408016 -0.08693697 0.36463356 -0.08207087 -0.25922492 0.6990012 -0.10967294 -0.9341943 -0.46840274 -0.04627705 -0.2935537 0.07059677 -0.48592612 -0.38790247 0.20567796 -0.1240501 -0.5754706 -0.09123658 0.4753094 0.09183206 0.09257847 0.70278853 -1.007842 -0.8139127 1.0640651 -0.02738783 0.20453218 -0.52272624 -0.51966065 0.071692064 -0.91170555 0.17518109 0.20079646 0.40364453 0.09439494 0.8200333 0.14105578 -0.28104913 -0.3312721 -0.5098418 0.6030731 0.04982722 -0.12300319 0.18436082 0.10830005 -0.24819118 -0.18648684 0.07212137 -0.09800321 0.0076273005 0.5801466 0.48877966 0.36231276 -0.3126061 -0.32869235 0.28680015 -0.27768728 -0.7595792 0.51628155 -0.9044358 -0.5545511 0.0067352676 0.2843708
322 0.42439574 0.21732539 -0.18978967 0.43821982 0.16706234 -0.32042015 0.5552913 0.09978886 -1.0906187 -0.20780592 0.01923411 -0.24018434 0.40168062 -0.5179204 -0.22152454 0.21261212 -0.07607477 -0.5742383 -0.0897017 0.612063 0.24362305 -0.06911796 0.56494755 -1.0926846 -0.5806533 0.7745161 -0.24578686 0.10711158 -0.694448 -0.71422625 0.4395114 -0.8840824 0.34172034 -0.17391577 0.6096854 -0.016670685 0.56584215 -0.15320988 -0.3459692 -0.4157314 -0.5618032 0.8393309 0.48496324 0.071859926 0.05713444 -0.06459257 -0.5013571 -0.3998082 -0.19823992 -0.503845 -0.22219294 0.33433327 0.4402522 0.11894 -0.38324654 -0.42194718 0.30943257 -0.50561285 -0.26578674 0.5987855 -0.58443415 -0.7357211 -0.29474598 0.23507577
3938 0.44742638 -0.26260602 0.58830345 -0.29041353 -0.25997633 -0.7516917 0.46271825 0.31011534 -0.306395 -0.29751825 1.2365098 0.48408163 0.25102347 -0.4201972 0.5126595 -0.20622176 -0.6844035 -0.39031804 -0.4332611 0.45232612 0.24777421 0.61447126 -0.21956779 -0.8878551 -0.9165934 0.11765324 -0.68853796 -0.012260664 0.10634024 -0.5362918 0.002751723 0.11334395 0.37859875 -0.22028837 0.5675531 0.1886481 0.27995586 0.4527955 -0.20260361 -0.044900853 0.021259222 0.057575066 -0.049324688 -0.05221506 0.13102295 -0.3980354 -0.5691028 0.09164036 0.31263253 -0.29475155 1.0550089 -0.41300362 0.1776634 -0.2423492 0.37365374 -0.5406808 -0.08934006 0.21860005 -0.2602454 0.12856558 -0.22990349 -0.47667235 -0.68005335 0.3126623
1800 0.5921179 -0.9731092 0.20426221 0.010168329 0.08257058 -0.50246346 0.12631549 -0.03203886 -0.8738497 0.033041812 0.2593285 -0.59990346 0.09817447 -0.29693758 0.028513633 0.2574163 -0.3967282 -0.21516502 0.5174005 0.79590416 0.400163 0.22560626 -0.24824126 -0.082054704 -0.051038317 0.3309584 0.06559527 -0.20803572 0.24207707 0.21065585 0.24288568 -0.1406378 -0.2503555 -0.27240616 -0.04740364 0.43687335 -0.1268104 -0.21302642 -0.20647709 0.08998647 0.16382682 0.2042108 -0.78117687 -0.07996967 0.755836 0.1938189 -0.051900536 -0.4514596 -0.18941979 0.07604981 0.21711943 0.22846204 0.15498026 0.2078629 0.12784486 0.07732561 -0.33353558 -0.14631252 -0.33631507 -0.020726295 -0.18520384 -0.67755216 -0.088057294 0.33495557
3545 0.27226353 -0.11476508 0.52632946 -0.20421307 -0.20117559 -0.5512987 0.3785616 0.5550896 -0.57634336 -0.31193486 1.0903815 0.4697747 0.28121465 -0.3356379 0.4676217 -0.17156234 -0.69292456 -0.48635092 -0.38900498 0.43000597 0.218066 0.756483 -0.17779271 -0.8904648 -0.9641424 0.06041944 -0.62342477 0.060411457 0.016555484 -0.59015906 0.13462344 -0.33636492 0.23532577 -0.46481284 0.2555177 0.22922575 0.22907075 0.41712072 -0.15976292 0.028935134 0.13688563 -0.03255787 0.120983735 -0.10515557 0.049308855 -0.46811494 -0.6386768 -0.06289601 0.36529195 0.036402784 1.0943391 -0.59755445 0.103588074 -0.20113726 0.5277768 -0.5832112 -0.09463593 0.15718731 -0.29720673 0.085963234 -0.3114546 -0.31543222 -0.84843785 0.20517701
25 0.40992552 -0.08078895 -0.13652037 0.21778804 -0.0986203 -0.22843562 0.6538885 -0.15233731 -1.1523124 -0.56334484 0.25286964 -0.5830025 0.078271575 -0.46934137 -0.32944843 0.07974117 0.1039312 -0.6710126 0.11681104 0.20734926 0.097010344 0.35994926 0.6899669 -1.2412146 -0.6381021 1.2491268 -0.3459068 0.30749044 -0.6354454 -0.9839063 0.17731571 -0.69263315 0.37239596 -0.13434467 0.28038663 0.34935376 0.46797922 0.15534976 -0.26760402 -0.81299204 -0.7971286 0.46296635 -0.03765491 0.03597917 -0.22217034 0.47610798 0.123852655 -0.31975776 -0.028091108 0.010081417 -0.18514508 0.44845882 0.59359556 -0.14661853 -0.31500465 -0.2282443 0.31082 -0.39983317 -0.45696762 0.3461454 -0.701459 -0.4400312 -0.27530414 0.32138762
475 0.7133003 -0.57882875 -0.05507162 -0.15842274 -0.13957596 -0.4167169 -0.166331 0.10907488 -0.74075603 -0.17472275 0.012038614 -0.263914 0.3855101 -0.51274854 -0.29149947 0.21691363 -0.48312697 0.2978596 0.090778165 0.20392932 0.3738899 -0.6410112 -0.1868538 0.055524662 -0.31390396 0.31781834 -0.57735944 0.10970493 0.47245082 -0.14749226 -0.25707376 -0.08377963 0.10992279 -0.3244306 -0.3670143 0.39654222 0.338816 -0.30474672 0.47452798 -0.27702406 -0.29237917 0.5369411 -0.24900107 -0.8567154 0.19108154 0.17418121 0.41881108 -0.22689039 -0.31450725 0.29017472 0.4370968 -0.32598066 -0.245711 -0.05281379 0.2882187 -0.82571733 -0.33791438 -0.36094168 -0.10237323 0.73487085 0.34311163 -0.8178988 -0.14716521 0.73652613
1663 0.5652263 -0.6954052 0.16473404 0.011864978 -0.032169864 -0.1329142 0.17156813 -0.07164365 -0.8141247 0.05135189 0.3492397 -0.7255743 0.027724575 -0.15801615 0.10833743 0.18542731 -0.70588136 -0.33624858 0.35625628 0.7167683 0.31540778 0.41428903 -0.23450881 0.13550203 0.06597987 0.2334693 -0.170133 -0.39223102 0.14598122 -0.070531234 0.39897048 -0.123248756 -0.2458675 -0.36009765 -0.10541079 0.5375743 -0.24464005 -0.25168222 -0.22318941 0.16723277 0.12141686 0.21238871 -0.6710371 0.07649425 0.59391886 0.0793899 -0.020420717 -0.52272683 -0.10796035 0.22547594 0.042283352 0.29887354 0.3686167 0.06339474 0.2831452 -0.14602959 -0.4789559 -0.25562787 -0.098850265 0.050971687 -0.26485148 -0.5749249 -0.046617936 0.40343872
1352 0.38386917 -0.88820326 0.28385714 -0.050530683 -0.014285264 -0.24771586 -0.052487824 -0.18493867 -0.9013313 0.03332825 0.31358927 -0.6965946 0.053266384 -0.25235707 0.05829411 0.05709887 -0.5865668 -0.19849631 0.41274747 0.8140679 0.2482334 0.25377482 -0.2896262 0.18762115 0.011946176 0.32587245 -0.23618054 -0.21149175 0.0062795663 -0.1596292 0.36480415 0.0036714328 -0.25367975 -0.37853092 -0.12508635 0.3177203 -0.1358016 -0.29041484 -0.21837078 0.14870115 0.21340255 0.20540638 -0.7558973 0.1459611 0.60733414 0.047600783 -0.1381641 -0.4154717 -0.1728373 -0.05627062 0.18936907 0.46773323 0.40968892 0.14279376 0.22794524 0.014363345 -0.3749052 -0.103213005 -0.27073422 0.015670445 -0.37295258 -0.599368 -0.11706684 0.35991374
713 1.1919202 -0.8927542 -0.055484403 -0.64652425 0.014054835 0.07558887 0.49514815 0.31080294 -0.869599 -0.05166216 1.1250918 0.19694775 0.62856346 0.025473032 0.2828205 1.2539688 0.053788923 -1.1058446 -0.7365106 0.4905624 0.7137325 -0.005995171 0.04911338 -0.20336716 -0.19332743 0.56812525 0.23874359 -0.09759618 -0.5210342 -0.21074091 -0.23791315 -0.4634685 -0.028562816 0.053304173 -0.20538135 -0.18144163 0.35004818 0.0050809123 -0.34338108 -0.023002315 -0.08202037 0.71390927 -0.3833003 -0.54293364 0.5738471 -0.38193956 -0.19803624 0.2994868 -0.27989298 -0.21508652 0.67868036 -0.2451448 -0.14982978 0.6737575 0.056439325 -1.0795445 0.6509381 -0.6321766 0.2560432 0.06536773 -0.6058706 0.23300415 -0.12609394 0.0098246345
26 0.81042194 0.07883829 -0.17294447 0.35027918 -0.1436733 -0.32712916 0.56934637 -0.15316461 -0.7911218 -0.41003364 0.0223961 -0.26818132 0.3577059 -0.7253959 -0.25416175 -0.043400127 -0.12662715 -0.530454 -0.16691753 0.50549304 0.0837598 -0.0782912 0.5917812 -1.2310525 -0.64670354 1.1173924 -0.14001487 0.38697696 -0.59848225 -0.8111661 0.25870633 -0.87025756 0.5025811 0.1183168 0.14075962 -0.008386557 0.6196992 0.00020407449 -0.15221766 -0.3311697 -0.5339443 0.5428231 -0.124779224 -0.1367127 0.3641636 0.22643825 -0.42757478 -0.24729511 0.03545071 -0.0110139195 -0.07923534 0.5029249 0.37899795 0.15608975 -0.42065728 -0.17173848 0.37671694 -0.46215037 -0.7166627 0.3915153 -0.70018053 -0.42972824 0.05394071 0.29337284
3604 0.3282581 -0.33944646 0.6110457 -0.31579962 -0.09403389 -0.10118719 0.15676685 0.6782825 -0.28750607 -0.41373968 0.92337966 0.26620424 0.11997346 -0.6106464 0.49895194 -0.019897971 -0.8315011 -0.3203124 -0.4358052 0.6601111 0.8616127 0.33141875 -0.18319766 -0.99345434 -1.0022265 -0.22285071 -0.8706013 0.2770272 0.0765345 -0.4488938 0.033585846 -0.41067496 0.30365676 -0.55614936 0.7161319 0.28163964 0.026526708 0.6326982 -0.16810276 -0.025253974 0.31325808 0.39288783 0.081205584 -0.057455648 0.10667337 -0.24209371 -0.5044887 -0.060738213 0.5712229 0.07137311 0.92165 -0.6802832 0.2613666 -0.23941562 0.38921186 -0.30429804 0.1179657 0.049196597 -0.27858928 0.08465867 -0.63134587 -0.04615689 -0.69464606 0.28336495
277 0.933952 0.025517756 -0.078133784 0.31160718 0.20426577 -0.32101288 0.8607599 -0.10510874 -0.8554704 -0.31210208 0.2796391 -0.3114235 0.48557836 -0.9717032 -0.057309113 0.15633209 0.19580506 -0.49420258 -0.14418194 0.110676326 0.22417629 0.117040366 0.64796233 -0.8955712 -0.34539253 0.83510417 -0.13680673 0.16251701 -0.3567464 -0.83461905 0.25982207 -1.1710821 0.2667644 -0.26823094 0.13100564 0.5059473 0.62425977 0.15320063 -0.0761801 -0.5851467 -0.6164841 0.6233929 -0.0846682 0.27164674 0.41016006 0.44905758 -0.63713306 -0.21474852 0.23129675 -0.4068499 -0.3443014 0.6765857 0.27318132 0.1826124 -0.1675286 -0.34129474 0.167737 -0.01638327 -0.60281575 0.6930112 -0.5411845 -0.37028986 -0.32494125 -0.009023856
1730 0.2937326 -0.73903215 0.21722397 -0.25309613 -0.1488526 -0.23741974 0.15374102 -0.12841727 -0.95004374 0.08732058 0.09793878 -0.78629076 -0.15164058 -0.10749083 0.3570974 0.21389465 -0.6218171 -0.19028342 0.24501601 0.7110041 0.39167264 0.45142204 -0.29964864 -0.031200537 0.034574054 0.060011655 -0.23985155 -0.25352213 0.059369814 -0.023827335 0.29067028 -0.19078669 -0.52341896 -0.32041433 -0.10348469 0.43943956 -0.1353874 -0.33132452 -0.36186165 0.12961961 0.2326059 0.38856634 -0.75013113 -0.026382918 0.6028954 0.08333462 -0.09253565 -0.37254396 -0.30783686 0.01169445 0.23297483 0.401184 0.20920546 0.20932738 0.3580977 -0.043731015 -0.37050888 -0.29727054 -0.041631848 0.263206 -0.29894304 -0.6277015 -0.11612199 0.3199946
428 0.53827393 -0.3503568 0.18472609 0.020105116 -0.20538628 -0.59867734 -0.23628996 -0.19068062 -0.85716003 -0.04275095 -0.09471315 -0.57055056 0.66201013 -0.3219606 -0.039215207 -0.048769645 -0.59756446 0.29930094 0.079680756 -0.11238897 0.23774211 -0.4273851 -0.18306679 -0.01419887 -0.06630933 0.46409908 -0.55556494 0.12647879 0.105921835 -0.68694043 0.24763878 -0.16419293 -0.037373476 -0.30457062 0.3321967 0.3377584 0.218393 -0.38573268 0.31644693 -0.029325318 -0.3529211 0.508234 -0.1970346 -0.68317616 0.009921847 -0.0629409 0.26087582 -0.14902005 -0.2823218 0.16332959 0.2809457 -0.26466957 -0.19988574 0.0041506137 0.24673659 -0.5620934 -0.13037509 0.1444916 -0.16226318 1.2975206 0.19873695 -0.422351 0.16574316 0.8781431
21 0.8547051 0.2800268 -0.36921695 0.41985023 0.20491168 -0.1836201 0.4217005 -0.211213 -1.26615 -0.47615302 0.21994777 -0.30666366 0.06644133 -0.31523398 -0.037805162 -0.030557796 0.17577402 -0.6239194 -0.2451738 0.04686656 0.06966863 -0.026906645 0.44947565 -1.3832959 -0.31961948 0.85904455 -0.09018444 0.39691952 -0.5459178 -0.4735317 0.112111025 -0.9610823 0.44885254 -0.2188755 0.53690535 0.12141978 0.31551045 0.1434094 0.023408506 -0.36315787 -0.6335157 0.47897112 -0.33412808 0.18511996 0.49610037 -0.042693987 -0.7823192 -0.3546854 0.2847336 0.16022585 -0.3324965 0.6590174 0.24398164 0.16975833 -0.13857266 -0.30518717 0.19631882 -0.39449722 -0.5731542 0.62778395 -0.66180056 -0.46527228 0.051832665 0.28624028
2543 0.96286094 -0.10559604 0.5771809 0.17868778 -0.26806578 -0.46732005 0.25402078 -0.20453478 -1.2504561 0.32887915 0.40049097 -0.517668 -0.2526535 -0.36701033 -0.04503332 0.18108398 -0.301972 0.16493186 -0.43717602 0.360774 -0.2712801 0.2161966 -0.09691808 -0.13774289 0.19227287 0.791873 0.07925088 0.14574198 -0.7736666 -0.14713576 -0.11404904 0.08044146 0.16848795 -0.2664852 0.30375233 -0.07453066 -0.41435307 -0.48670036 0.23002884 -0.09707512 -0.0053152824 0.28794816 0.48868096 0.64551693 -0.021565812 0.038899932 -0.8333719 -0.10478622 0.042106137 0.18748863 -0.024767607 -0.28956404 -0.27200884 -0.038861386 -0.44849798 -0.6717941 -0.19325946 -0.38812914 -0.4519691 -0.10846581 -0.47870144 -0.27900547 -0.67552364 -0.47574082
2047 0.92705697 0.03233351 0.33286434 0.2035001 -0.016199745 -0.1874257 0.36432013 -0.84357697 -0.9500706 -0.12661332 1.1294602 -0.6595904 -0.41744742 -0.31486645 0.15359572 0.2178446 -0.7243577 0.20113072 -0.45651552 -0.010246574 0.059116878 0.6101106 0.12930012 0.33549923 0.47759497 0.54565763 0.083260655 0.56200427 -0.84441763 -0.6185619 -0.31716537 -0.12802021 0.021766376 -0.27152458 0.3427863 0.20726304 -0.3032937 -0.35935512 -0.123781815 -0.11093679 0.16145903 0.6665039 0.52057236 0.007537529 0.10048957 -0.162212 -0.6989292 0.12311273 -0.17156634 0.28071082 0.13014953 0.29284477 0.079883955 -0.361034 -0.2678442 -0.56164336 0.19184361 0.3215862 -0.19148064 0.03643819 -0.42496338 -0.06217167 -0.065532885 0.25904283
252 0.7482755 0.015077756 -0.15940025 0.42278847 -0.0149639165 -0.2770039 0.6116326 -0.26473635 -0.72874206 -0.27348164 0.09200019 -0.07420724 0.26588458 -0.8113967 -0.25097975 0.07332657 -0.00814629 -0.5765591 0.054585293 0.2655294 0.25212282 0.10855836 0.695596 -1.1099836 -0.6304805 0.8919762 -0.18648301 0.14265032 -0.42211956 -0.750209 0.2946772 -0.9750083 0.44898912 0.1689618 0.33824685 0.0983838 0.76587445 0.051993173 0.22058734 -0.26857552 -0.65045744 0.5417349 -0.20291525 0.13281064 0.09835808 -0.08194174 -0.4663311 -0.19437946 -0.28272828 0.06489686 -0.07124752 0.5278604 0.39811984 0.2528536 -0.31863284 -0.4407123 0.41076705 -0.34505585 -0.74943584 0.60635483 -0.8005967 -0.49339974 0.052901704 0.19598928
1431 0.3092718 -0.6329618 0.14895253 0.45046455 -0.21890366 -0.39914185 -0.035132065 -0.49442098 -0.74682385 -0.036274053 0.21884164 -0.49497715 -0.055569373 -0.024216097 -0.02203924 0.041278206 -0.5832911 -0.21373345 0.60302 0.8527473 0.31559005 0.4564497 -0.3954969 -0.043190207 -0.13877282 0.2209252 -0.32036173 -0.08969826 -0.035812154 -0.018853249 0.40422177 0.17900896 -0.33556086 -0.26052043 -0.15845226 0.36198118 -0.10014181 -0.045059767 -0.2387279 0.21298386 0.33326358 0.3935184 -0.97420394 -0.16194688 1.0529623 -0.13118838 0.10521996 -0.52588904 -0.15262368 -0.013306037 0.08934095 0.22343343 0.5179998 0.1042586 -0.023506498 -0.25758052 -0.323181 -0.29360515 -0.28708667 0.27605146 -0.40731466 -0.5733463 0.06305591 0.28132766
1086 0.6907081 -0.45962283 -0.018590702 0.0040885587 0.18603408 -0.72431964 -0.58042204 -0.069372505 -0.5659979 -0.23715176 0.27489424 -1.1498852 0.15815657 -0.026580442 0.2654203 0.05074997 -0.22660923 -0.15923269 0.48666838 0.90997076 0.17039505 0.3361436 -0.40541792 -0.15125105 -0.08168337 0.4675481 -0.3151953 0.01694862 0.5081829 -0.0041255285 -0.095410705 0.0223983 -0.35781342 -0.1596968 -0.1743533 0.46180737 -0.25680438 -0.24950436 -0.13422763 0.19447567 -0.047119286 0.010542098 -0.964696 -0.16363247 0.15220356 -0.031111317 0.16754006 -0.64807314 -0.07462171 0.61445963 0.11097896 -0.038819395 0.15605754 0.22627538 0.30755714 -0.13314958 0.0045607234 -0.4737865 0.13110438 0.13809855 -0.12602952 -1.1829886 -0.058993664 0.04120199
705 1.3115906 -0.4451377 0.3181605 -0.54227096 0.11936109 0.1537413 0.3359949 0.023835856 -0.6923197 0.17036496 1.031061 0.21261147 0.27200085 0.28684026 0.4427284 1.3288466 -0.05123065 -0.7591638 -0.35061875 0.63339597 0.35813934 -0.0025218471 -0.0031779238 -0.3071632 -0.30455652 0.7156172 0.16482854 -0.090611406 -0.42793205 -0.5707766 -0.24236913 -0.6556017 0.17713332 0.20564523 -0.38428715 -0.31437382 0.076266825 -0.29357 -0.29059604 -0.28684914 -0.1444634 0.47079182 -0.46985963 -0.5012192 0.98061436 -0.7977572 -0.11061904 0.24943942 -0.2541621 -0.42946774 0.2627051 -0.00063648657 -0.1627123 0.15546748 0.15486237 -1.2677218 0.37160107 -0.9213688 0.3064976 0.02320963 -0.59297335 0.21803464 -0.32962692 0.024593892
1584 0.78672004 -0.84060806 0.06925999 -0.100081585 0.20556813 -0.34978497 -0.03550819 -0.3317442 -0.76542145 -0.09370765 0.25817192 -0.68941545 -0.048292488 0.049589902 -0.15070784 0.35663107 -0.85548043 0.16851078 0.63549924 0.5874375 0.29669595 0.23534143 -0.021489127 0.1642081 -0.14962128 -0.09326551 -0.05313513 0.10870393 0.26059413 -0.041788407 0.45030156 0.13665757 -0.24448177 -0.27564552 0.028523434 0.57759696 -0.12841405 -0.35428956 0.0814409 0.3419835 -0.10834943 0.4228335 -1.0470035 0.046414 0.26130748 -0.3102048 0.08255452 -0.48331174 -0.3574287 0.24822335 0.28627488 0.36340883 0.39096883 0.02665496 0.21780084 0.10031846 -0.3901161 -0.21905872 -0.26909432 0.05663358 -0.41620225 -0.3678568 -0.1843417 0.26044288
119 0.69521755 0.10198331 -0.23432031 0.030109514 -0.15683316 -0.16062286 0.8282915 -0.18282561 -0.75444734 -0.04163057 0.20302778 0.115963325 0.18551089 -0.7664371 -0.43615848 -0.17621425 0.20649685 -0.43791267 0.02133946 0.29633805 0.28089342 0.22499551 0.9805955 -1.2147238 -0.43026417 0.845025 -0.19157717 -0.019935468 -0.13410635 -0.68927205 -0.077765495 -0.62213266 0.058417775 -0.37657222 0.31376383 0.1920813 0.5012693 0.21957073 -0.13737427 -0.44311506 -0.45846164 0.96196944 0.20197538 -0.53160805 0.15002319 0.18294516 -0.48475647 -0.4455696 -0.36027104 -0.023049127 -0.38130277 0.5678232 0.35526893 0.42327183 -0.09401786 -0.010988052 -0.066098504 -0.33981392 -0.45995843 0.7242257 -0.7631317 -0.7012294 0.17187785 0.48356053
3101 0.18029432 0.3108805 0.10220957 0.21799766 0.2026872 0.0134916445 0.1904098 -0.25231043 -0.52824533 0.18002826 1.0239897 0.6088471 0.14510335 -0.025424099 -0.5895398 0.21310286 -0.35605034 -0.009095393 0.0645448 0.28393444 0.5525925 0.15929613 -0.36684787 -0.25878382 -0.35187164 0.6558937 -0.35858178 -0.23433103 -0.054536894 -0.41960227 -0.050788186 0.02354358 -0.14685325 0.22849683 -0.2294524 0.6625951 0.15816326 -0.0014036484 -0.6987808 -0.13455172 0.22639348 0.22209509 0.043417204 -0.29500723 0.3822287 -0.3333143 -0.16236657 -0.5561058 -0.12616201 0.6758323 0.6797915 0.9107069 -0.3222858 -0.2183559 -0.08469997 -0.037429497 0.07192556 -1.0156502 -0.61710596 0.54980975 -0.22125658 -0.018521804 -0.13657095 -0.7213945
1199 0.41708052 -0.6991882 0.2749471 0.04934432 0.00813632 -0.37463763 0.16158889 -0.20925319 -0.74288523 -0.04934383 0.303025 -0.7906625 -0.20321977 -0.07173571 0.0773295 0.19666055 -0.6241644 -0.29099396 0.22917615 0.83722126 0.37453267 0.30938318 -0.19599761 -0.076185614 -0.315307 0.12677397 0.055189025 -0.18787667 0.01301982 -0.0016743136 0.45456195 0.031287078 -0.1015645 -0.41876626 -0.052375052 0.5771156 -0.15131173 -0.4136519 -0.36278307 0.20537302 0.15049183 0.20559266 -0.8594247 -0.17872387 0.68808424 0.030583026 0.12638627 -0.43446752 -0.23775473 -0.020747852 -0.03766512 0.3571003 0.18199669 0.24192278 -0.03179126 -0.07233355 -0.31074268 -0.31911922 -0.28624526 0.14458567 -0.24582909 -0.6025684 0.22432521 0.31516543
805 1.3590958 -0.56514287 0.15836765 -0.6494903 -0.08567618 -0.041550584 0.234723 0.18489146 -0.6078531 0.1630472 1.1651309 0.21424174 0.6133722 0.08084023 0.21283558 1.1806164 0.14355727 -1.0209091 -0.31329566 0.2989693 0.30152452 0.45217836 0.088172495 -0.27672726 -0.63261163 0.5330386 0.17302975 -0.053813677 -0.3903673 -0.38027018 -0.2069873 -0.7333774 -0.10628046 0.10960082 -0.5806554 0.02524335 0.19385217 -0.082126185 -0.3999784 -0.008419889 -0.12179488 0.6355053 -0.33684963 -0.45349252 0.64212793 -0.64688337 -0.120002545 0.103367664 -0.37138897 -0.3545206 0.30390608 -0.22747535 -0.4697717 0.18079953 -0.098429956 -1.1382087 0.53467464 -0.65216196 0.63734436 0.06194592 -0.7650481 -0.066676535 -0.43873048 0.27970862
122 0.8639403 0.32159293 -0.32110885 0.5230769 -0.13078171 -0.21218106 0.34422395 -0.17446804 -1.1138664 -0.36251014 0.28737983 -0.20724934 0.09829542 -0.22037216 -0.050298806 -0.111616656 0.06838305 -0.4337583 -0.19660534 0.46343264 0.072790705 0.19491147 0.51227367 -1.3443003 -0.45822597 0.72971493 -0.2541441 0.42898425 -0.5701228 -0.7208246 0.21800418 -0.84493893 0.5806387 -0.1827152 0.44294444 0.07433808 0.585939 -0.007543029 0.19837184 -0.26810837 -0.5077071 0.6605462 -0.046801254 0.112657376 0.35052007 0.22112156 -0.33751735 -0.3001892 0.09354325 -0.040925674 -0.2738843 0.8034489 0.20229538 0.2840674 -0.281998 -0.263889 0.2827976 -0.52217156 -0.33781412 0.30710462 -0.90172565 -0.5812668 0.050462525 0.17554395
2347 0.8158517 0.0063837594 0.6367664 0.35192102 -0.11115239 -0.4566427 0.10668363 -0.26013097 -1.2289621 0.28906026 0.5339825 -0.46226484 -0.14706342 -0.41103148 0.06903214 0.19399843 -0.50206995 0.1316945 -0.42136648 0.1453559 -0.21682562 0.02524337 -0.17439505 -0.08201988 0.15260649 0.68127555 -0.018837279 0.10160378 -0.71006954 -0.31835195 -0.18016547 -0.1433657 0.2926363 -0.34340906 0.2556634 0.19041446 -0.27320337 -0.7595593 0.32923678 0.034206156 -0.062316637 0.08611191 0.53835064 0.69045 0.11233998 0.1306667 -0.84018946 0.03202785 -0.08426851 0.24504378 0.14831747 -0.3011302 -0.2563651 0.08042648 -0.57211906 -0.6127585 -0.03200818 -0.54120505 -0.31736892 -0.13783178 -0.63643914 -0.28434038 -0.43478173 -0.5306442
3291 0.40348658 0.31005007 0.11013336 0.08706221 0.20757863 -0.0051637557 -0.38423508 -0.0019879325 -0.37000796 -0.34062195 1.1425184 0.70806414 0.15377879 -0.33856648 -0.6221174 0.42903942 -0.28146693 0.12276297 -0.190283 -0.19960311 0.8244613 -0.027100848 -0.22609347 -0.2794002 -0.3708873 0.5719627 -0.47948316 -0.26742575 -0.27275673 -0.109627545 0.04426991 -0.039109528 -0.086476624 -0.098980315 -0.23324184 0.53414935 0.10139427 0.071621865 -0.6768901 -0.06135128 0.17874414 0.503528 0.013244108 -0.22512504 0.3996892 -0.32224062 0.019469352 -0.78836507 -0.36478746 0.27319983 0.3109692 0.6806866 -0.46416432 -0.28196347 0.09736816 0.023380844 -0.041465443 -0.9225815 -0.7685363 0.37797058 -0.6440706 0.07945365 -0.11397353 -0.3124959
1768 0.37908998 -0.7405471 0.19525261 -0.11197213 -0.020172639 -0.044607572 0.22952949 -0.1436682 -0.83243304 0.04964064 0.20439845 -0.65277326 -0.26743403 -0.11917821 0.13317986 0.16818538 -0.73262763 -0.20794183 0.2298654 0.7025198 0.42173564 0.46981114 -0.47919542 0.049333207 -0.2638271 0.4527035 -0.1943312 -0.22763427 0.22078992 -0.028034031 0.492044 0.027998324 -0.3768313 -0.3140306 -0.13785146 0.3518322 -0.10508383 -0.41086185 -0.16160002 0.18150894 0.15329605 0.11279443 -0.7989221 -0.0786498 0.64297295 -0.06682024 -0.05814815 -0.35561985 -0.46653646 0.054928984 0.013855719 0.35811472 0.315452 0.1867768 0.051309485 -0.08481984 -0.24594682 -0.043437857 -0.04727265 0.19755892 -0.50517833 -0.5538502 -0.096390136 0.34610316
917 0.455056 -0.2789083 -0.3163157 0.29089472 -0.35912955 -0.23777835 0.11562141 0.17488377 -0.5201469 -0.34973606 0.23522647 -0.4788979 0.72607815 -0.84851825 0.5824792 -0.1152937 -0.35538787 0.003988748 0.29401535 0.45085523 0.036453474 -0.30938002 -0.07202619 -0.009508705 -0.47001365 -0.15996975 -0.028486844 0.20913549 -0.119305916 -0.20290355 -0.094137125 -0.12211055 -0.08565029 -0.14255734 -0.2949484 0.064703144 -0.9373398 -0.755952 -0.31413144 0.43366626 -0.20118308 0.28319126 -1.3186123 -0.50021666 -0.16906765 -0.604386 0.29024866 -0.18284403 -0.6775527 0.005532138 0.58053255 0.04726246 0.12398471 -0.20672534 0.062402975 -0.5583877 0.10328372 -0.1710843 -0.626443 0.7843718 -0.3726141 -0.76403 -0.53055555 0.01023235
719 1.2580291 -0.47097468 0.16669795 -0.44860527 0.14117976 0.1256808 0.21792868 0.296936 -0.74257076 0.24455784 1.2765638 0.16521561 0.31136754 0.035070676 0.4659436 1.0148436 -0.0748668 -1.1600317 -0.31935647 0.2645797 0.47752687 0.15819478 0.21005806 -0.1841033 0.010812586 0.8686381 0.045839828 0.21338649 -0.26850504 -0.43339038 -0.12348414 -0.5863603 0.038604435 0.050224192 -0.38969818 0.064422056 -0.016123721 -0.042776026 -0.35164025 -0.28393966 -0.2967137 0.5845334 -0.5167402 -0.510098 0.87178636 -0.5098392 -0.17888649 0.17735766 -0.3585362 -0.42220366 0.53426963 -0.4419786 -0.34865087 0.40947092 0.1307409 -1.0923494 0.7432386 -0.40458375 0.45453557 0.41328558 -0.78431654 0.35725576 -0.23650177 -0.105096005
3397 0.47596383 0.07228744 0.31522715 -0.16287714 0.41513842 -0.14497833 -0.005018926 -0.013325705 -0.30745754 -0.07965302 0.9197075 0.521733 0.22245055 -0.22981599 -0.57610184 0.47009972 -0.33558646 0.22736686 -0.026173634 0.035578966 0.64558834 0.14661548 -0.35720542 -0.4525003 -0.47051144 0.60730386 -0.350024 -0.15143438 -0.375094 -0.54679316 -0.1651948 -0.1830494 -0.119463034 0.0627717 -0.41420892 0.18759744 -0.064763136 -0.09154411 -0.7894278 0.026895257 -0.030834727 0.21818109 -0.24817775 -0.07581313 0.19107704 -0.0063397316 -0.15201694 -0.7951689 -0.28061134 0.4151425 0.4407974 0.8685315 -0.53302187 -0.4416119 -0.0032344195 0.27028805 0.123728134 -1.1270809 -0.3977966 0.5854725 -0.33955443 0.17549965 -0.110582314 -0.7475068
2742 0.41815007 0.34014583 0.23314983 -0.11231562 0.34255967 -0.07973703 0.172146 -0.19376603 -0.44000345 0.04480158 0.93939364 0.40954706 0.169023 -0.1252542 -0.6187413 0.41462502 -0.46708032 -0.10377648 -0.031802364 0.13245612 0.82385135 0.05031614 -0.4544916 -0.038804173 -0.3690556 0.69249684 -0.49637398 -0.025177302 -0.48941764 -0.36421388 0.045409653 -0.057941686 -0.1401041 0.24285881 -0.29196864 0.64360553 0.23093233 0.0034572112 -0.5282126 -0.113837354 0.062954225 0.25474983 -0.07863377 -0.32125732 0.13652027 -0.28668794 0.009328908 -0.6964468 -0.1010381 0.27610388 0.28092414 0.6960086 -0.49313578 -0.37511584 0.0235661 0.13834853 -0.0072138067 -0.8122589 -0.6806229 0.53152204 -0.46068877 0.19225031 -0.14986068 -0.86128956
1589 0.40644363 -0.7172631 0.13781716 -0.12205717 0.23990594 -0.33132 0.14751779 -0.13137913 -0.80377203 0.04980169 0.3462948 -0.76197636 -0.11687196 -0.07332213 0.14446652 0.20590739 -0.6150832 -0.027751489 0.31265467 0.7752067 0.31732732 0.43436295 -0.4732257 -0.040951233 -0.092494264 0.00692789 -0.19093777 -0.09238512 0.04467736 -0.12434694 0.29850096 -0.07313019 -0.30335158 -0.32309616 -0.16944727 0.6222455 -0.17727877 -0.3391482 -0.3121601 0.011920468 0.24055023 0.18827906 -0.8373605 -0.009446464 0.6292142 0.15023784 -0.011602405 -0.4355811 -0.11022231 0.015556895 0.052958723 0.26353556 0.39632204 0.003880871 0.11423754 -0.17634724 -0.43946192 -0.2307284 -0.21445927 0.084762044 -0.33221105 -0.5698462 -0.029019943 0.28802696
1746 0.6478283 -0.92315805 0.19300215 -0.15893616 -0.063192375 -0.54829925 0.05070431 -0.09054069 -0.7107768 0.1185067 0.046152525 -0.6456849 0.2175773 -0.052755218 0.019703966 0.15641744 -0.6373022 -0.18726203 0.4550924 0.699391 0.320861 0.20419015 -0.3368804 -0.019025696 -0.044532575 0.33156687 0.044599123 -0.2554096 -0.029091181 0.12351427 0.16475227 -0.20500876 -0.28346056 -0.25702497 0.029808922 0.564692 -0.13305405 -0.22196622 -0.25339946 0.10576426 0.21895202 0.2520979 -0.84557635 -0.06538517 0.77403116 -0.014828827 0.048059423 -0.5586499 -0.21513622 0.14899708 0.16517308 0.17261842 0.3533509 0.17015725 0.20991263 -0.05176324 -0.36187983 -0.081915505 -0.25545505 0.026576634 -0.31132647 -0.63496596 -0.20026101 0.22036946
3082 0.3863318 0.25003758 0.15101264 -0.019120818 0.3543356 -0.17361137 -0.14654686 -0.10905841 -0.4315857 -0.13972984 0.9838169 0.48318803 0.43596324 -0.2841783 -0.79118335 0.33104727 -0.38216898 -0.12020443 -0.08770514 0.01986151 0.60569733 0.02733189 -0.35552812 -0.38396937 -0.29539877 0.6313958 -0.6197305 -0.28815374 -0.20946035 -0.4190511 -0.120346785 -0.06377546 -0.37559202 0.13873774 -0.2206903 0.5389852 0.1374618 0.10821881 -0.69771767 -0.06091189 0.07794448 0.4258264 -0.016668575 -0.06330012 0.38544297 -0.18402393 0.014630015 -0.82017654 -0.039142407 0.22564532 0.41665062 0.51233226 -0.48589128 -0.161923 -0.014197847 0.16563317 -0.20033352 -0.81080854 -0.7632652 0.49620754 -0.34560695 0.14963247 -0.21706785 -0.6938281
1827 0.36854827 -0.79998523 0.074242294 -0.087168284 -0.0403054 -0.49184325 0.3336584 0.09927067 -1.1412591 0.13999446 0.194377 -0.7683231 0.08696303 -0.07881399 0.18639593 0.29552042 -0.584502 -0.09750591 0.14169535 0.6920955 0.44558287 0.45593825 -0.14258023 -0.019898407 -0.19757539 -0.088274054 -0.118128136 -0.35717705 0.15529363 0.18710636 0.32950762 0.019120013 -0.3531925 -0.1058211 -0.2420444 0.51028675 -0.14587642 -0.4373852 -0.15788513 0.18546768 0.24917223 0.28082407 -0.86121124 -0.13214944 0.6973797 0.031706944 -0.17103197 -0.3755931 -0.15056978 0.090034425 0.24681379 0.30742636 0.29711124 0.2923162 0.13183074 -0.010854832 -0.36987314 -0.20114303 -0.3640088 -0.0038356036 -0.008618964 -0.55335623 -0.19581626 0.08594719
239 0.9654068 0.38613144 -0.27185923 0.4131377 -0.46896693 -0.3689059 0.5194055 -0.2497088 -0.74248666 -0.29657763 0.032073684 -0.25614768 0.42549777 -0.8615311 -0.23951328 0.1656571 0.031705502 -0.556281 -0.29536426 0.6213506 0.05205767 0.28635752 0.6815076 -0.9602937 -0.5798445 1.0641367 -0.16085921 0.35108128 -0.5767839 -0.79555666 0.49493107 -1.0566169 0.32457447 0.13023609 0.37027234 0.13968985 0.4890708 0.13957562 0.16972019 -0.3095678 -0.5603443 0.6224562 -0.1713444 0.04864411 0.17804842 -0.012487506 -0.31225446 -0.2458739 0.08422631 0.024091024 0.29860163 0.653786 0.33051002 0.25934434 -0.43184793 -0.0750159 0.31795087 -0.22171584 -0.5361508 0.4924959 -0.7638799 -0.43897143 -0.15280934 0.29900178
3684 0.31833717 -0.16941959 0.3990974 -0.23418234 -0.32135436 -0.67667174 0.69253296 0.3555273 -0.2621526 -0.16041045 1.1930184 0.6279537 0.024837863 -0.76694995 0.31255472 -0.03897937 -0.527481 -0.5368504 -0.39856765 0.68196285 0.2217276 0.77280825 0.19716306 -0.53926456 -0.5473156 0.13801375 -0.74239385 0.13845725 0.24018903 -0.40934908 0.08987993 0.26374227 0.41841 -0.34168965 0.42801812 0.13728762 0.33275777 0.6794695 0.013274984 -0.005913093 0.10793464 0.062708445 -0.37385496 -0.21575287 0.16564164 -0.36169842 -0.4653205 -0.05102114 0.5346654 -0.20788696 0.94584024 -0.54637736 -0.06623763 -0.18443803 0.05404026 -0.6834599 -0.21268521 -0.032653935 -0.14686567 0.34043485 -0.54597044 -0.5232901 -0.4175614 0.20322983
2839 0.36565635 0.31436536 -0.056986585 -0.24772114 0.18083403 -0.7229799 0.24508642 -0.25030786 -0.47216627 -0.26384467 1.2053595 0.19530967 0.11457613 -0.20277378 -0.024713553 0.19771242 -0.48477313 -0.15641515 -0.40819696 -0.19740207 0.39580497 0.29735637 -0.06935917 -0.14659514 -0.9202003 0.5502582 -0.101150446 0.8498351 -0.10851682 0.36020637 -0.0043709255 -0.2464571 -0.5501272 -0.27058133 0.0930597 -0.015148302 -0.012691516 0.13363528 -0.41645128 -0.438534 -0.13460824 0.6522155 -0.11490419 0.22110689 0.33229274 0.03995517 0.4169599 -0.19896589 -0.3359935 0.049189683 0.4120005 0.5198114 0.11720247 0.36021996 0.4644256 -0.40865368 0.120146506 -1.2231661 -0.5839352 0.06487189 0.21262021 -0.27076545 -0.11817384 -0.7161378
3320 0.3500785 0.47402683 0.26973426 -0.09103311 0.09453633 -0.11027953 -0.07113299 -0.20376547 -0.4498704 -0.16188443 1.2239504 0.47139022 0.09326219 -0.19657283 -0.7449266 0.60503817 -0.41032115 -0.02800516 0.030530207 -0.00057132065 0.6780554 0.21268512 -0.5635446 -0.027958516 -0.63359547 0.8518411 -0.35316175 -0.29261523 -0.32487673 -0.38873518 -0.07775004 0.15617166 -0.21827665 0.22594804 -0.51863813 0.4272234 0.15349314 0.007407345 -0.5029131 -0.09988224 0.23099004 0.06829429 -0.2598147 -0.47417438 0.2619541 -0.23918448 -0.1335525 -0.6582361 -0.21127856 0.2945626 0.17777665 0.5753187 -0.41508436 0.0021671294 -0.2294131 0.016589364 -0.18203717 -0.6236862 -0.60225004 0.58964926 -0.39908424 0.055944785 -0.07440373 -0.79313356
1126 0.29790977 -0.7258103 0.2645382 -0.118552156 -0.08027246 -0.37086022 0.21546784 -0.19219366 -0.93283933 -0.321073 0.43258214 -1.0006746 0.058877714 -0.19134244 -0.17497541 0.14967082 -0.35542095 -0.18008369 0.40130228 0.9863813 0.2586126 0.3304329 -0.33930492 -0.020778453 0.080836855 0.12780009 -0.25658217 -0.20929152 -0.014686143 -0.021029947 0.52720445 -0.031227354 -0.2946542 -0.40428266 -0.024456073 0.585724 -0.18166573 -0.12831196 -0.29304346 0.3454673 0.047113236 0.24301447 -0.614743 0.080960035 0.47635186 0.07608215 -0.027702078 -0.5396517 -0.15281144 0.23243284 0.09882998 0.22571743 0.33202425 0.13532566 -0.046150137 -0.15949255 -0.34027714 -0.0771853 -0.25868818 0.0951543 -0.2077745 -0.4651536 0.1807987 0.20277809
637 0.39321733 -0.5279098 -0.39641848 -0.10797061 0.105862655 -0.6906878 -0.4592184 -0.32650614 -0.75876826 -0.6910299 0.064085834 -0.82426053 0.34278765 -0.14147525 0.12106002 0.15309611 -0.5479715 0.3928674 0.20188309 0.5880518 -0.029587656 -0.27192447 0.23513177 0.07140241 -0.35226995 0.26599213 -0.21814236 0.040062338 0.56679666 -0.16176708 -0.3980134 -0.2858521 -0.3247629 -0.07021335 -0.37623376 0.5466525 0.07295487 -0.31189904 0.19140884 -0.018820615 0.4483579 0.24043235 -0.6187278 -0.68923426 -0.03358404 -0.18579419 -0.0076060854 0.15689081 -0.30833742 0.3041706 0.5102292 0.09633636 -0.30450842 -0.0484184 0.25272018 -0.66008294 -0.045407735 -0.12794338 -0.25336012 1.1583315 -0.09013709 -0.5812284 -0.17759517 0.24905533
412 0.20081656 -0.6312982 0.1622558 -0.27895406 -0.025478 -0.695267 -0.46465534 -0.08208844 -0.9450137 -0.32578096 -0.04418578 -0.5841489 0.21044615 -0.7442246 0.03075517 0.420805 -0.73457396 0.43914703 0.2131287 -0.10982682 -0.05761981 -0.2811961 -0.28477424 -0.17084952 -0.30944908 0.5737491 -0.4410288 0.028112803 0.14202906 -0.50627166 -0.21940093 -0.09646018 -0.09643275 -0.16195446 -0.09904821 0.15731418 0.28570363 -0.3367763 0.44759837 -0.25195137 -0.502591 0.35747164 -0.25875676 -1.048987 0.17588818 -0.20661242 0.30556935 -0.23760065 0.17227986 0.19998805 0.64952964 0.16806991 -0.22338216 -0.06587838 0.1885036 -0.806576 0.063490845 -0.3794039 -0.041689668 0.70865506 0.082637064 -0.47202066 -0.281525 0.90476376
517 0.40729952 -0.7375918 0.13702011 -0.11083861 -0.10662643 -0.5311254 -0.2706521 0.06065303 -1.0253254 -0.36385792 0.14259939 -0.29713514 0.23158626 -0.41123545 0.17142138 0.45387486 -0.84772646 0.3357185 0.31167644 0.10311689 0.16582276 -0.68561023 -0.21542771 -0.031396657 -0.19500498 0.43046173 -0.22772202 -0.047111385 0.23595783 -0.19549683 -0.21986808 -0.1811513 -0.2794124 -0.35295284 0.10400804 0.057513073 0.2490821 -0.06537398 0.22901367 -0.12910679 -0.019742262 0.57356113 -0.4156411 -1.0471727 0.23470016 0.039372228 0.21745554 0.09424741 -0.5046112 0.0691614 0.4032185 -0.08395451 -0.3217418 0.17421332 0.33347893 -0.45238817 -0.022449117 0.013077234 -0.057447575 1.0124394 0.12859634 -0.58578587 -0.16124846 0.50584596
563 0.4423056 -0.9417898 0.058093306 -0.043898214 -0.35481983 -0.24942452 0.18859722 -0.24526638 -0.8925479 -0.01807804 0.007346692 -0.15345006 0.5170911 -0.5517669 -0.30897558 -0.17433234 -0.5622271 0.7971579 0.09767425 -0.17540851 0.18627472 -0.19448368 -0.26845232 -0.086775124 0.1412432 0.32646734 -0.48318595 0.07636466 0.14709547 -0.4398184 0.11319853 0.13818245 -0.100479685 -0.3591013 0.5985208 -0.057166353 0.047453325 -0.4719279 0.16011633 0.074677385 -0.34444356 0.14193426 -0.099851295 -0.64514786 -0.052361246 -0.28052297 0.434265 0.039452784 0.3224033 0.683876 0.7997502 0.31756887 0.019359346 -0.0030680338 0.34734115 -0.90747344 -0.22911233 0.0146960765 0.25752407 0.9454373 0.18578869 -0.99460506 -0.00025555553 0.26233283
136 0.93813235 0.0060861395 -0.12480489 0.60034126 -0.0051847617 -0.18753314 0.70758474 -0.17420214 -0.8264214 -0.065366395 0.3931864 -0.71207726 0.0011977726 -0.5429715 -0.1335644 0.014181958 -0.05022529 -0.116656 -0.36578283 0.06789572 0.043722916 0.1267989 0.39457503 -0.64462143 0.13149777 0.60724556 -0.088263616 0.020384643 -0.972139 -0.4877405 -0.22827885 -0.3631276 0.64752644 -0.08575725 0.38925838 0.090049304 0.20810494 -0.12395164 0.015503288 -0.2991565 0.006274694 0.73486334 0.4983616 0.24290569 -0.060727745 0.12920465 -0.7191947 -0.27648777 -0.2631931 0.054383766 -0.19196568 0.25614846 0.42284393 -0.16984499 -0.13075887 -0.16947398 0.09580987 -0.15928149 -0.045633975 0.19303878 -0.67190945 -0.66199666 -0.04906899 0.036424547
200 0.53372586 0.24047196 -0.08204081 0.4641307 -0.18987826 -0.15722725 0.6843232 0.042854074 -0.9188111 -0.38616934 0.35863426 -0.23563278 0.2197394 -0.7474056 -0.44806492 -0.108324185 -0.15947305 -0.6459002 -0.041698713 0.42420837 0.07361212 0.21336469 0.87314093 -1.3214905 -0.709741 0.9628385 -0.16393672 0.27322695 -0.578455 -0.8320251 0.3257258 -0.93675077 0.44218084 -0.04379331 0.16482705 -0.06282614 0.23066515 -0.21014176 0.09852726 -0.39913395 -0.6682895 0.6682449 -0.07469479 -0.11067645 0.35307539 0.26900026 -0.37027547 -0.04269835 0.12577055 -0.092573926 -0.24175586 0.46063948 0.3862685 0.15315211 -0.03571014 -0.3013669 0.38743147 -0.35195386 -0.78988254 0.52106875 -0.68911034 -0.47519115 0.09750018 0.088161334
203 0.93628025 0.034157224 -0.17318885 0.25777084 0.10396238 -0.08881774 0.53246295 -0.22851317 -0.8619959 -0.62768674 0.17960533 -0.28963494 0.30569804 -0.7878348 -0.50454247 -0.017526902 -0.12925795 -0.5229591 0.056196865 0.1401519 0.0053305225 0.18045351 0.7601631 -0.99157614 -0.7739252 1.0071608 -0.051360697 -0.05688151 -0.4164539 -0.4716794 0.28052837 -1.1543883 0.59440696 0.29263216 0.34789196 0.31211427 0.5934279 0.243328 -0.06319209 -0.3602683 -0.5918004 0.7376355 -0.13311954 0.14113632 0.024741296 -0.05111005 -0.2976614 -0.048594784 -0.34869495 -0.07659446 -0.2421455 0.6364254 0.2946781 0.37688705 -0.2882329 -0.4260091 0.1775793 -0.3671202 -0.47660026 0.5035699 -0.84438574 -0.44527912 -0.15009643 0.47550547
1804 0.4639289 -0.8205774 0.2720425 0.07341498 -0.09994987 -0.40516576 0.20631063 -0.17459351 -0.61811316 -0.11603599 0.37146923 -0.7656181 -0.019050367 -0.06688965 -0.011789738 0.11305078 -0.7010484 -0.13104801 0.25943747 0.9766733 0.35659343 0.25507715 -0.30315194 -0.05149315 -0.115059465 0.45743433 -0.21851596 -0.16191559 0.12235992 0.12380272 0.32728767 -0.068900704 -0.1763583 -0.30810088 -0.053820565 0.4912092 -0.23948003 -0.34506375 -0.37053308 0.15486856 0.04342 0.23413908 -0.94087994 -0.047966145 0.6887352 0.07246179 0.11318619 -0.20212637 -0.16731624 0.19823448 0.040919904 0.28236166 0.34258318 0.3241607 0.051263496 0.07281178 -0.3198922 -0.23508069 -0.12234737 0.083348766 -0.26523936 -0.7195849 0.121329516 0.3097625
3633 0.38953754 -0.3276721 0.53904945 -0.12450254 -0.39393026 -0.58718604 0.6725046 0.69567573 -0.24120761 -0.09390335 1.0914649 0.5156481 0.049916092 -0.3696357 0.31890476 -0.30601844 -0.5627655 -0.33151087 -0.5105337 0.8134318 0.3287621 0.50762254 -0.19693688 -0.5855572 -0.6932382 0.28428912 -0.51180065 -0.04802804 0.01896499 -0.5219603 0.08540426 0.0034831052 0.45718795 -0.32156074 0.56663865 0.082248375 0.3363174 0.6615749 -0.19355248 0.13470583 0.11503442 0.13915452 -0.096675806 -0.24341471 0.32446465 -0.35066783 -0.4137201 0.30395988 0.18057688 -0.28231815 1.1017135 -0.27013952 -0.012963801 -0.12782909 0.38422993 -0.6248937 -0.20162421 0.19783795 -0.3070142 0.31691778 -0.21261199 -0.33028483 -0.52737945 0.16503793
9 0.66468424 -0.033393178 -0.56673574 0.24720286 -0.22779067 -0.16666512 0.5688348 -0.32042715 -0.81343263 -0.39186645 0.077774934 -0.28750122 0.51448727 -0.42283052 -0.35155675 0.046100028 -0.20199214 -0.5495715 -0.20750594 0.43438968 0.13271314 0.2011464 0.74798614 -1.167079 -0.6721689 1.1107036 -0.10188562 0.43899775 -0.55384696 -0.9494011 0.17205447 -0.60619986 0.4930299 -0.105638914 0.20814976 -0.07650868 0.6915358 0.1561564 -0.4461738 -0.41808033 -0.538358 0.732477 0.13166124 -0.0663114 0.17171963 0.20085722 -0.31820935 -0.1215558 0.06641643 -0.048276 -0.12767667 0.5344376 0.076131195 0.13283849 -0.5267339 -0.48243654 0.19168675 -0.24871504 -0.582156 0.40931416 -0.7842075 -0.5848616 -0.043798693 0.16538131
3363 0.21039896 0.36903504 0.13082232 -0.3437644 0.09404228 -0.8149524 0.29264265 0.107668325 -0.47425324 -0.27162525 1.3596374 0.18393967 -0.0343669 -0.35726815 -0.04134318 0.20832168 -0.37950855 -0.14848307 -0.18628989 -0.1056989 0.24592121 0.16139643 -0.075241156 -0.113721274 -0.8104075 0.4974513 -0.19068082 0.7058245 -0.26973855 0.2859452 0.13871205 -0.2549523 -0.36537436 -0.20957349 -0.039554473 -0.06749975 0.020913538 0.27784446 -0.27546117 -0.51053876 -0.10516918 0.7598055 -0.1867647 0.12237006 0.3611871 0.09210268 0.5560681 -0.054073345 -0.47387302 0.10796089 0.40253308 0.5506876 0.009681095 0.52030563 0.23529214 -0.39470974 -0.015413678 -1.3207923 -0.5700315 0.15002036 0.19067125 -0.20792025 -0.28103012 -0.8088674
3521 0.3142461 -0.5922923 0.37629455 -0.31310278 -0.2604519 -0.7360912 0.7633411 -0.1750701 -0.26345098 -0.33408704 0.82665265 0.58426577 -0.17754556 -0.24420857 -0.06607034 -0.29086882 -0.646901 -0.4456211 -0.45743287 -0.02765995 0.3158827 1.0542587 -0.017217217 -0.2547718 -0.33080113 -0.09675715 -0.5577842 0.19107974 -0.034514543 -0.915338 0.4936351 -0.046734944 0.6760658 -0.3534197 0.4358015 0.54906535 0.30484346 0.662043 -0.2889712 -0.1653944 0.0019162921 -0.1465836 -0.4371584 -0.44542053 0.032803502 -0.56946456 -0.7510475 -0.15685466 0.2602777 0.094027005 1.0307944 -0.98514974 -0.3116335 0.21355577 -0.031270657 -0.5847715 -0.29830405 -0.5260456 -0.4591767 0.4740626 -0.7488728 -0.16479832 -0.24225369 0.35185045
1377 0.45105025 -0.8450249 0.0396207 -0.040711787 -0.18294258 -0.3416 0.09128848 -0.32630548 -0.82389325 0.068667516 0.3724607 -0.5863675 -0.13944806 -0.1960315 0.21319272 0.31177413 -0.6543941 -0.19224173 0.45897347 0.690364 0.28333616 0.2519006 -0.41175216 -0.079054415 -0.025344253 0.23250411 -0.34220722 -0.29339892 0.30584684 -0.055500265 0.4676474 -0.0058622193 -0.045035742 -0.33569223 -0.18939789 0.4839854 -0.108192146 -0.41797882 -0.3856654 0.20940419 0.09826194 0.23595916 -0.67877585 -0.124250814 0.47763053 0.16706617 0.1121195 -0.17681478 -0.46042287 -0.019760352 -0.05036932 0.42548668 0.2594694 0.24584061 0.24371241 -0.08080288 -0.4269175 -0.22842531 -0.035934243 0.18770671 -0.48766458 -0.63631845 -0.26425898 0.44217235
1390 0.53579104 -0.89465195 0.10985533 0.09405646 -0.02405339 -0.5163926 0.07218669 0.0005830792 -0.9583159 -0.0052974983 0.18815492 -0.7982478 0.1883529 -0.12803191 -0.05598777 0.28462383 -0.5486793 -0.12047558 0.37902874 0.7336745 0.51152176 0.3566681 -0.2107186 -0.05004553 -0.16547236 0.29883367 -0.022717388 -0.3133923 -0.018023856 0.112831764 0.28100732 -0.076120004 -0.306853 -0.122063756 -0.091391884 0.42998344 -0.18920365 -0.09070117 -0.20346606 0.095886685 0.16870882 0.14399518 -0.82474464 -0.14420314 0.69087917 -0.04296172 -0.074996315 -0.5039435 -0.20706232 0.16703053 0.09250179 0.14312875 0.26557943 0.28746867 0.3183799 -0.11348531 -0.44101438 -0.03472188 -0.3035185 -0.0648594 -0.1556642 -0.5552534 0.12372332 0.18058136
2951 0.0092770485 0.06644541 0.47797915 -0.33712828 0.54931784 -0.14172213 -0.29624382 -0.082856804 -0.5308807 0.0347627 1.091787 0.4727724 0.5654962 0.007285856 -0.58440566 0.18896887 -0.56775635 -0.27084073 -0.22150011 -0.11845188 0.8401059 0.3163599 -0.24750724 -0.54716194 -0.3527224 0.50270015 -0.5211771 -0.29292637 -0.28508216 0.22306716 -0.034676056 0.021922588 -0.33903924 0.2816989 -0.19418423 0.3255445 -0.023403289 -0.13112837 -0.48854026 0.08136364 0.08456828 0.25010297 0.13160445 -0.21717784 0.64634824 0.2872114 -0.18681335 -0.35413697 -0.55114114 0.33955348 0.5274599 0.78886056 -0.09292693 -0.33502746 -0.5716843 0.024461817 -0.31890056 -0.9936436 -0.3662294 0.6976442 -0.45229024 0.031181248 -0.3447404 -0.39217016
315 0.98819304 0.27252898 -0.4295344 0.44695818 0.3103296 -0.35635275 0.66076833 -0.046761286 -1.0946397 -0.30714154 0.030842846 -0.5812809 0.10208427 -0.5134465 -0.3214047 0.066653766 0.1757067 -0.12937833 0.069814 0.11152518 0.15878734 0.24404728 0.5376218 -0.9337418 -0.73918134 0.8948115 -0.21329243 0.18295537 -0.78723675 -0.8577141 0.30322313 -0.5925821 0.34260088 -0.15457314 0.16272643 -0.10116575 0.728086 0.14455128 -0.14778201 -0.4868197 -0.5222002 0.798445 0.1962411 -0.3667705 0.36895463 0.12559061 -0.730159 -0.48539534 -0.12198171 -0.31861416 0.040693544 0.20861873 0.4732687 0.08866001 -0.28326374 -0.15073405 0.29989544 -0.4160533 -0.26273763 0.39749256 -0.57677436 -0.45505098 -0.077927284 0.36819714
2863 0.5229893 0.19328085 0.19472213 0.16287349 0.11851118 -0.41993123 -0.102624066 0.06654019 -0.5115755 0.26656356 0.9311363 0.6316719 0.4717675 -0.4007887 -0.66034645 0.29719886 -0.3463382 0.18124612 0.24857298 -0.04591142 0.6600791 0.16213885 -0.55586565 -0.14251116 -0.31511673 0.46615255 -0.7901571 0.018009225 0.110786825 -0.53115714 -0.14880258 -0.31132635 -0.4989708 -0.1836853 -0.23375566 0.62074566 0.14045496 0.38992867 -0.5502271 -0.3815994 0.0033666217 0.17682485 0.02298693 -0.001028694 0.35245764 0.118415676 -0.10867495 -0.88066864 0.007416223 0.29581875 0.47633454 0.42158464 -0.31341335 -0.11170074 -0.18329866 0.20807174 0.015880154 -1.1886315 -0.51230025 0.4936697 -0.1147212 0.082217865 -0.034123577 -0.90401864
1621 0.4180502 -0.8463334 0.21719094 -0.11798509 0.081512004 -0.3580154 0.10333977 -0.26169828 -0.7239471 -0.24544622 0.44269386 -0.82640314 -0.020876314 0.07130961 0.07969062 0.222482 -0.57654536 -0.3106453 0.36533657 0.69181925 0.30087525 0.36671984 -0.4672505 0.110637255 -0.10027163 0.14300321 -0.12240547 -0.08318349 0.16212565 -0.005328839 0.21330026 0.04846695 -0.1558642 -0.16444951 -0.09242003 0.33535177 -0.2423193 -0.388087 -0.18700562 0.08650875 0.09940174 0.36543348 -0.5953268 0.16613033 0.58940685 -0.0029294738 0.09515054 -0.56391615 -0.34273517 -0.057407297 -0.06527983 0.15326035 0.46536216 0.017524047 0.042885114 -0.3073259 -0.6610026 -0.00902273 -0.17603764 0.29640034 -0.57768124 -0.6053636 0.0037255432 0.23712675
1833 0.57982653 -0.8471468 0.37364882 0.06628409 0.083617985 -0.54588014 -0.016445698 -0.18433923 -0.740418 -0.13269366 0.21643108 -0.83823144 0.13920431 0.013001471 0.1442565 0.21202138 -0.6054575 -0.091543734 0.4331203 0.80438495 0.48911402 0.36532983 -0.32248592 -0.13216776 -0.18159369 0.16928995 0.008886114 -0.13767822 0.024819793 -0.011848255 0.27996713 -0.00713795 -0.20351721 -0.2340825 0.030343913 0.48525926 -0.23181681 -0.10258775 -0.18027386 0.011957622 0.005635491 0.13478589 -0.96970916 0.05964019 0.7379525 0.10288295 -0.0036420303 -0.31588897 -0.032957993 0.17030978 0.11290437 0.29710972 0.26390246 0.09471456 0.03866015 -0.0003284489 -0.29283813 -0.28190336 -0.19598155 0.09078499 -0.18066965 -0.72059226 0.13950376 0.34803703
304 0.92537004 0.21241128 -0.57509124 0.33396092 0.26184535 0.05358411 0.42491293 -0.28458518 -0.90301913 -0.4348992 0.0601439 -0.278102 0.16945039 -0.95103616 -0.285586 0.11550053 -0.03584533 -0.57590437 -0.046482164 0.31002635 0.1839526 0.09635596 0.459707 -1.1755892 -0.5934901 0.9771744 -0.14994834 0.050660517 -0.59854627 -0.834878 0.08833908 -0.87404513 0.49359927 -0.017415436 0.31590313 0.04213218 0.35301802 0.043725498 -0.3054875 -0.027444348 -0.5468454 0.8070867 0.037049912 -0.055006165 0.29172933 0.5477895 -0.59134454 -0.15672362 -0.13777834 -0.18499275 0.09128563 0.39897698 0.58536726 -0.1983249 -0.08614659 -0.54592735 0.47529256 -0.104500614 -0.4606315 0.455158 -0.44891584 -0.3590485 -0.09125165 0.26037034
3280 0.15159416 0.27551967 0.100869074 -0.120461546 0.12606035 -0.071776986 -0.40711737 -0.19959602 -0.4006369 0.13251619 1.2662028 0.45785737 0.104407266 -0.66129375 -0.74238753 0.48121306 -0.4246677 -0.2344487 -0.1847494 0.24993613 0.6228535 0.009460559 -0.43390656 -0.15127708 -0.31050852 0.73178893 -0.57856035 -0.028491924 -0.29333097 -0.41165766 -0.19171992 -0.01227214 -0.27263093 0.35567805 -0.12180637 0.66963017 0.116101034 -0.10749697 -0.6564866 -0.29979464 0.088324 0.19356458 0.027385017 -0.5559684 0.16254552 -0.14990804 -0.08510683 -0.7377931 -0.03670293 0.2317036 0.17556089 0.5451102 -0.33998576 -0.18989044 0.23218672 0.0025722284 -0.023836233 -0.7166214 -0.5227583 0.46686804 -0.14902578 0.17722577 -0.38357309 -0.8002247
1612 0.47424456 -0.76591074 0.20862272 -0.08196241 0.10641892 -0.34230265 -0.14684336 -0.072726995 -0.7223356 -0.09495178 0.2448228 -0.7671712 0.11361194 -0.049945258 0.025915263 0.28798008 -0.60693383 -0.068776675 0.21370019 0.7895048 0.4126565 0.48549905 -0.35681668 -0.2663536 -0.07968109 0.060435094 -0.14534637 -0.302931 0.06642857 0.061429303 0.39290622 -0.12316979 -0.2936168 -0.2347889 -0.09166647 0.43945938 -0.2208765 -0.24203186 -0.15103538 0.1303694 0.24141978 0.2978369 -0.87345415 0.2268977 0.76041347 -0.0050369943 0.047753923 -0.24228767 -0.17802739 0.21310629 0.10097664 0.43845725 0.35963455 0.07332686 -0.01988656 -0.06908345 -0.3387919 -0.23456074 -0.25449705 0.09722167 -0.26188257 -0.57740414 -0.07363138 0.19404928
1783 0.8346256 -0.27745557 -0.30222523 -0.09197625 -0.094262436 -0.15546669 0.20202576 0.18627813 -0.38640073 -0.3393182 0.073360965 -0.5479515 0.3585781 -0.6527935 0.5597773 -0.3532163 -0.53630716 -0.27901328 0.27190724 0.840012 0.008731941 -0.021937147 -0.120859936 -0.12402018 -0.27332613 -0.28793383 -0.00091263436 0.38704002 -0.28088817 -0.032627027 -0.28077978 -0.124348514 -0.2480354 -0.23165539 0.10772716 0.4230449 -0.5182504 -0.5363513 0.16505249 0.2634018 -0.04568352 0.15292162 -0.9671154 -0.8180121 -0.17488348 -0.74123996 0.49969456 -0.32211173 -0.4189112 0.45549113 0.40422767 0.43397114 0.04266497 0.04149652 -0.02608396 -0.5210023 0.02975064 -0.40126815 -0.7017552 0.8290025 -0.4946077 -0.047669996 -0.48750305 0.2375403
1835 0.26622105 -0.62802374 0.09922041 -0.15676625 0.021659335 -0.042221356 -0.017991781 -0.124485835 -0.62405926 0.009071073 0.122075886 -0.76106805 0.09921755 -0.2446156 0.10782465 0.26211956 -0.6748469 -0.17865965 0.029882094 0.6478956 0.5816074 0.341804 -0.25303712 -0.18914227 0.20020543 0.22795635 -0.33761448 -0.290726 0.15914568 -0.01596548 0.36044317 -0.04334054 -0.17133841 -0.35388574 -0.3010114 0.46279156 -0.47491828 -0.37420803 -0.36145782 0.007579747 0.34663913 0.27325764 -0.48716554 0.017884929 0.6899427 -0.06861214 0.10855874 -0.35091528 -0.47956392 0.100237675 0.17758487 0.22405495 0.5829256 -0.043520927 0.15312232 0.0568903 -0.38141963 -0.33174232 -0.26382163 0.0529879 -0.40088388 -0.69300264 -0.12525807 0.33126983
824 1.4213383 -0.786001 0.036195196 -0.3897365 0.14919583 0.27611828 0.13681395 0.34644276 -0.44267252 0.20147589 0.99397445 0.16018716 0.22501963 0.16330265 0.16352904 1.2740085 0.10838381 -0.6958815 -0.047847353 0.36207327 0.7258417 0.59087485 0.23386861 -0.36578894 -0.5461584 0.62195694 0.20272313 0.04223205 -0.53849745 -0.2700304 -0.33742812 -0.5402275 0.25446925 0.09062252 -0.6678314 -0.24306758 -0.091902316 -0.14342962 -0.15644087 -0.24839048 -0.31607735 0.6661483 -0.37168363 -0.5418447 0.9001961 -0.51762456 -0.26819956 0.23191291 -0.20199072 -0.3648505 0.68589675 -0.14104211 -0.24697879 0.24687193 0.07188476 -1.1206316 0.6125394 -0.75067425 0.2918302 0.31249258 -0.7911558 0.06399373 -0.30591097 -0.12179715
3756 0.4249266 -0.26158533 0.41676956 -0.15586197 -0.46561608 -0.5920146 0.5441429 0.33510992 -0.43307126 -0.15416087 1.4570149 0.7240549 -0.051533416 -0.30805704 0.11110021 -0.5065656 -0.42264014 -0.30028602 -0.49310547 0.6046487 0.79693913 0.58275515 -0.12660412 -0.92630017 -0.6896931 -0.038410537 -0.4760838 -0.13975656 0.2928877 -0.42915803 0.13964008 0.054006744 0.4384382 -0.5621498 0.4838179 0.3097005 0.12338556 0.3758315 0.042086143 -0.06335207 0.2782738 -0.22018075 -0.27151796 0.07020177 0.20122741 -0.7461989 -0.25440466 0.2112206 0.5051348 -0.051761795 0.36176318 -0.47332248 0.12932447 0.1270666 0.23986657 -0.74886847 -0.21374628 0.23473054 -0.35355523 0.31495425 -0.4663783 -0.49397498 -0.69775355 0.104775086
373 0.66538537 -0.6579144 -0.012325973 -0.013876046 -0.43428525 -0.84120005 -0.30469587 0.053665675 -0.77415484 -0.4216165 0.17783025 -0.5325535 0.3468086 -0.49273625 -0.14238289 0.36236337 -0.5179182 0.51607615 0.037562717 0.20004377 0.24513976 -0.5314242 -0.39003602 -0.30148157 -0.18987562 0.30033022 -0.50972414 0.1550408 0.4567078 -0.31282258 0.017831534 -0.046059143 -0.16005793 -0.34446114 -0.14491886 -0.26845708 0.41327083 -0.5552305 0.48594826 -0.28213692 -0.21030775 0.33450437 -0.3123203 -0.9909429 0.08506656 -0.08527832 0.23246159 -0.059069622 -0.10459606 0.1511541 0.42032686 -0.25366554 -0.2631763 -0.11009136 0.30775994 -0.78800595 0.091003105 -0.5848343 0.21393651 0.8518581 0.2017281 -0.426183 -0.40980732 0.2582352
747 1.1060615 -0.533554 0.1687685 -0.63009846 -0.42726296 0.346988 0.37150908 0.28799707 -0.51787406 0.008137576 1.2185699 0.11436562 0.14358094 -0.046305552 0.025786562 0.84956545 0.21583937 -0.87938106 -0.14678936 0.6930603 0.5116462 0.15086195 0.15501708 -0.24437132 -0.31141484 0.56422305 -0.17222512 0.07392459 -0.38968706 -0.4249985 -0.4079968 -0.41143635 -0.18018728 0.010277223 -0.7756229 -0.18745856 -0.0468777 -0.0630043 -0.06367997 -0.3209934 -0.24259484 0.6818422 -0.30941594 -0.5900058 0.98056066 -0.73445433 -0.4122463 0.44715118 0.050266664 -0.20186745 0.3446706 -0.047389235 -0.32528526 0.4739004 0.15927297 -1.1796438 0.6850307 -0.77868384 0.35574192 -0.01346346 -0.8792695 -0.15932396 -0.3327351 0.13183115
3434 0.3059635 0.24772115 0.033639837 0.05198293 0.31701946 -0.09542356 -0.16363887 -0.19321099 -0.59629524 -0.11870919 1.0888397 0.47612193 0.16142488 -0.13966364 -0.7937405 0.4032811 -0.41726682 -0.15303174 -0.079640634 0.0021503398 0.76676035 0.0040749395 -0.38022518 -0.17354913 -0.29013434 0.60533005 -0.63024795 0.013025399 -0.23350976 -0.34893146 0.07748547 0.050720632 -0.11972506 0.20001048 -0.28665435 0.56305766 0.038502555 -0.002307206 -0.59455 -0.09110451 0.059455637 0.28697374 -0.017010488 -0.30398852 0.15514271 -0.2745937 0.04207033 -0.668992 -0.056004696 0.37742054 0.25104663 0.55238533 -0.49486518 -0.16163152 -0.027714228 0.114432305 -0.17697307 -0.7574437 -0.71613723 0.6547555 -0.48455012 0.27000389 -0.28288487 -0.6903958
484 0.30124488 -0.5558331 -0.057283837 -0.07882244 -0.19067816 -0.71368283 -0.29221892 0.340161 -0.9230852 -0.33248308 0.008859591 -0.31537396 0.1397237 -0.46769574 0.31085896 0.38959768 -1.0511266 0.37715614 0.45750254 0.3640388 0.32337946 -0.35512006 -0.064645275 0.27039236 -0.09678892 0.56415266 -0.39549416 -0.036146462 0.46204093 0.066937074 0.04548452 -0.11659594 -0.14998402 -0.4473847 0.1975148 0.743394 0.22183754 -0.37855685 0.053021334 -0.19165455 -0.10884782 0.42322844 -0.4586447 -0.6291483 0.12437246 -0.071500465 0.32807067 -0.17479812 -0.16029403 0.035548642 0.16592105 0.13266796 -0.30400646 -0.04470878 0.5438201 -0.69653016 -0.10542157 0.06427931 0.10047375 0.680381 -0.046480928 -0.4419108 0.18408109 0.44170114
1714 0.45839176 -0.6222687 0.21060954 -0.020767836 -0.02075654 -0.52007586 0.019905573 -0.1780406 -0.7539825 0.06872061 0.23728417 -0.7004227 -0.018449476 0.038652692 -0.0010614969 0.27151677 -0.71016777 -0.19326751 0.29250804 0.83793783 0.3029483 0.4364265 -0.24587601 -0.14694549 -0.20801644 0.11279397 -0.0890583 -0.17000008 -0.0034837625 0.026877359 0.3850685 -0.11137712 -0.22139901 -0.31910288 -0.016738169 0.7460633 -0.27934277 -0.28352645 -0.1358192 0.022456823 0.14587994 0.1979742 -0.9304141 0.07579774 0.6564397 -0.07314607 0.056694206 -0.41520956 -0.18623388 0.02114773 -0.006849778 0.23415677 0.31901315 0.16374002 0.10637693 -0.13344681 -0.501681 -0.19354592 -0.16426061 0.035903074 -0.26161858 -0.6867 0.04548109 0.24703088
353 0.6001082 -0.5769449 0.04416598 -0.2067405 -0.17221284 -0.42565662 -0.46562496 0.19858569 -1.1367266 -0.25772035 -0.033302605 -0.3905766 0.15036136 -0.34307635 0.34326762 0.21140616 -0.7191006 0.22798848 0.3281362 0.07988145 0.32482204 -0.46346197 -0.25110662 -0.27764046 -0.08366595 0.4084595 -0.3876834 -0.1981906 0.2761414 0.015447376 -0.21077065 -0.08674318 0.01216878 -0.035780378 -0.12697011 0.34086955 0.1768551 -0.13267566 0.25305432 -0.29837367 -0.023116007 0.25685805 -0.5846729 -0.9784577 -0.030154178 -0.18686679 0.17119324 -0.17974983 -0.349705 -0.044704728 0.03302916 -0.107965566 -0.2668337 0.0858605 0.35400516 -0.75273037 -0.5047365 -0.05953232 0.017460458 1.0429635 0.035612572 -0.39500552 -0.24485427 0.33809718
1707 0.6123854 -0.6217013 0.27240217 -0.09466796 0.07360653 -0.48946512 0.023230327 -0.06962041 -0.6691011 0.18101795 0.29087836 -0.9394573 0.0005366412 0.032136377 0.12989749 0.20559673 -0.7143865 -0.08421697 0.18494895 0.81539595 0.43003622 0.3662474 -0.26335597 -0.074500434 -0.24377349 0.16868877 -0.023579884 -0.1490224 0.12703499 -0.11064269 0.37146753 -0.07266471 -0.25879443 -0.45384294 -0.03664381 0.5648674 -0.22970717 -0.26917318 -0.33179626 0.120688684 0.13404956 0.24848233 -0.9450042 -0.25074422 0.76545435 0.14556223 -0.022879638 -0.39034137 -0.1564944 -0.003645833 -0.017472757 0.21706976 0.34862143 0.28885606 0.1268352 -0.22738533 -0.27462894 -0.18501684 -0.112686165 -0.011011683 -0.20731024 -0.49566564 0.040364213 0.2780405
3051 0.32212165 0.22588918 0.037255507 -0.044331707 0.462413 0.04188345 -0.029587409 -0.20929483 -0.47053146 -0.10648332 1.0915762 0.47650227 0.28248048 -0.48914206 -0.7333057 0.6535092 -0.33002096 0.14200796 -0.36522695 -0.050140474 0.5071547 0.38631797 -0.27887723 -0.168336 -0.6624146 0.5245504 -0.5110897 -0.07936442 -0.28974903 -0.3088811 0.13229172 0.008095653 -0.38295886 0.28422338 -0.29221895 0.52052265 -0.03043482 -0.08023176 -0.49420324 0.015589082 0.15856871 0.021329874 -0.20895392 -0.118081026 0.2513108 -0.19885607 -0.027994685 -0.7341637 -0.13662405 0.57864094 0.45541865 0.66194147 -0.23408979 -0.1984812 -0.14713728 0.14473641 -0.16318676 -0.7916157 -0.46716797 0.5822902 -0.555307 0.20517054 -0.2426554 -0.71012485
1559 0.4786239 -0.6801318 0.20862757 -0.095262125 0.20627047 -0.36733994 0.09426517 -0.09760776 -0.84762543 -0.2664679 0.42134467 -0.5007277 -0.008470649 -0.14955942 0.06542724 0.038419083 -0.80822474 -0.2579898 0.43586397 0.73612183 0.20365098 0.4265194 -0.27917713 0.1499626 -0.1576381 0.21818079 -0.2020711 -0.40113816 0.06654678 -0.06437566 0.44816762 -0.020156827 -0.2821608 -0.5924401 -0.18834299 0.701249 -0.1607469 -0.2265809 -0.17298199 0.13957371 0.18332496 0.2010471 -0.86520034 0.0097662145 0.6009568 0.14128192 0.11319545 -0.4710154 -0.33717045 0.12974858 0.0986769 0.17446004 0.3998658 0.032764323 0.2261301 -0.049457725 -0.55027366 -0.15967257 -0.2088179 0.17794098 -0.43027988 -0.5317643 0.1668362 0.31738353
1078 0.45446822 -0.6370487 0.29398364 0.091768496 -0.074805364 -0.45785835 0.15275295 -0.023136241 -0.74073166 -0.085749194 0.33500907 -0.8448229 -0.14263368 0.07504798 -0.1344458 0.319139 -0.77105325 -0.016366212 0.33663926 0.7152491 0.3301438 0.45792955 -0.15295002 -0.07720899 -0.10206912 0.18856564 -0.063873895 -0.23163213 0.04292024 0.0037285956 0.45497206 -0.06307121 -0.121648856 -0.49713975 -0.09709392 0.5827202 -0.14838044 -0.35754728 -0.12925945 0.21209705 0.012587869 0.18555601 -0.93317914 -0.15886721 0.6285582 0.100573115 0.052981406 -0.4411999 -0.2456309 -0.05025738 0.15148683 0.30710247 0.38956043 0.29097015 0.16409151 -0.14786671 -0.4574521 -0.23043829 -0.094666906 0.10882449 -0.317879 -0.535525 0.11496718 0.17497839
2754 0.5704184 0.670758 0.14170602 -0.18782802 0.1888643 -0.7116813 0.30216914 -0.20178142 -0.6737792 -0.15758602 1.244946 0.29170766 0.113885306 -0.19947189 -0.04070474 0.14994116 -0.51349074 -0.26651755 -0.30495182 -0.37017626 0.11151794 0.24073546 0.030094406 0.14901419 -0.6395414 0.5901645 -0.4773426 0.80363715 0.19057941 0.29508424 -0.1860553 -0.3630449 -0.20076592 -0.2518241 -0.34846956 -0.06783958 -0.21062171 0.23526946 -0.20696248 -0.39634812 -0.10603919 0.6062321 -0.20544542 0.3276461 0.5613191 0.10173527 0.36021075 -0.536254 -0.41597483 -0.03499346 0.42651436 0.7645129 -0.16760671 0.33411855 0.5636652 -0.49632347 0.061862126 -1.330571 -0.6920056 -0.1725315 0.115519404 -0.30793408 -0.30773327 -0.50812304
745 1.4068166 -0.47340137 -0.0062335045 -0.6184382 0.124594085 0.015238925 0.17872299 0.2928687 -0.8316398 0.20200698 1.0266185 0.19401903 0.48315585 0.39978 0.16376185 0.97562873 0.102896035 -1.0537682 -0.4432828 0.4367254 0.19423841 0.042385064 0.3076168 -0.046101157 0.1488749 0.89336693 -0.1699642 0.17966671 -0.4122787 -0.4304237 -0.060787782 -0.34552926 0.34158173 0.044179995 -0.52805316 -0.15191725 0.19300824 0.11063848 -0.42779666 -0.05924862 -0.038061157 0.6465241 -0.6180639 -0.6407124 0.7723695 -0.5827685 -0.28687015 0.25103012 -0.3740902 -0.45757884 0.5413751 -0.22374277 -0.26791131 0.23681098 0.06453186 -1.3739786 0.3948929 -0.69166505 0.097699694 0.17646255 -0.6162126 0.15325154 -0.29867744 -0.1471458
3116 0.32649326 0.35380033 0.016370699 -0.028591199 0.23280415 -0.1352827 -0.25729084 0.03642053 -0.49497053 0.21741255 1.2026111 0.58808994 0.10947084 -0.30146345 -0.595435 0.45650843 -0.31304935 -0.064150915 0.08621093 0.20291242 0.6942019 0.050514024 -0.4171748 -0.35602546 -0.18442793 0.91924554 -0.4556303 -0.08978615 -0.24891485 -0.38745412 -0.21191512 -0.1438646 -0.14978632 0.28210622 -0.20266652 0.75237775 0.111618906 -0.07041681 -0.5633976 -0.1224454 0.18934454 0.3161075 0.0026749459 -0.29738876 0.28206584 -0.29336736 0.07587065 -0.70513636 -0.04951011 0.419323 0.29744425 0.5793374 -0.32542026 -0.33848152 0.283002 0.07253618 -0.06956769 -0.7866003 -0.6766553 0.4013566 -0.24643002 0.23434807 -0.17501986 -0.6551483
1277 0.53114295 -0.40736684 -0.27003556 -0.116532795 -0.0018964955 -0.52769154 4.9053895e-05 -0.12877885 -0.41456854 -0.3969374 0.35784605 -0.38606328 0.37877312 0.15295185 0.13503484 -0.23644021 -0.75009996 -0.46410978 0.32739955 0.7435414 0.29163978 0.19637081 0.058951885 -0.059349213 -0.30798575 0.058571763 0.004928005 0.15658446 -0.1215937 0.000112308466 -0.6489088 -0.20444182 -0.38207233 -0.1445498 0.01624331 0.041777954 -0.22622097 -0.63051546 0.1065211 0.41153863 -0.32360438 0.14368472 -1.070941 -0.6735671 -0.5483145 -0.40617108 -0.19688207 -0.24389146 -0.37040392 0.6009517 0.29149312 0.07757346 0.08262557 -0.04956693 0.06077723 -0.6974903 0.16019344 -0.27755988 -0.55402213 1.038957 -0.12934187 -0.4739006 -0.5695843 0.31546032
1376 0.38031557 -0.7480798 0.13611946 -0.25959894 0.12414426 -0.13740492 -0.13580403 -0.21317291 -0.7372769 -0.12509786 0.21493432 -0.8190009 0.076949626 -0.15832533 0.12409424 0.3665883 -0.65203017 -0.099423185 0.11754793 0.6867875 0.22646786 0.37072185 -0.33781117 -0.19187993 -0.12467641 0.15626043 -0.2676922 -0.31589273 0.057759333 0.033434305 0.31793866 0.0045224978 -0.17273869 -0.24639443 -0.14970723 0.41644165 -0.28371042 -0.31901425 -0.2919295 0.14849418 0.21644981 0.2533648 -0.57060355 0.12092713 0.7320037 -0.06089095 -0.053116404 -0.42465574 -0.4479254 0.09825431 -0.038270157 0.39536622 0.5235867 0.09992335 0.04657769 0.038406752 -0.39715663 -0.15837795 -0.30063894 0.15538889 -0.34380457 -0.54730767 -0.18879189 0.33459505
896 0.5181474 -0.493441 -0.22225882 -0.092120394 -0.023559887 -0.47590172 -0.06035281 -0.25425053 -0.43953392 -0.46754143 0.46167633 -0.33787048 0.22486605 0.17217715 0.399226 -0.14676604 -0.69958305 -0.44723225 0.3183451 0.73701847 0.30067468 0.029298944 0.08893877 -0.040443644 -0.32348344 -0.051721063 0.042138055 0.05833004 -0.20833705 -0.048427746 -0.6188596 -0.3000541 -0.3220341 -0.04422293 -0.010780684 0.040706065 -0.21676762 -0.42650592 0.11644715 0.522686 -0.31541607 0.09695283 -0.9879962 -0.6894158 -0.5499867 -0.41462648 -0.14797057 -0.32407779 -0.35619068 0.45927417 0.38964316 0.15388376 0.2142307 -0.048770342 0.15464585 -0.6232912 0.07167733 -0.35487154 -0.5839726 1.0390309 -0.08185465 -0.47699788 -0.47285774 0.19528955
3948 0.43178165 -0.16445312 0.45500186 -0.1651484 -0.17944862 -0.6036075 0.3576693 0.35965207 -0.18748519 -0.023776846 1.0096694 0.6413269 -0.02414146 -0.25349182 0.2577447 -0.31617582 -0.82569766 -0.53715086 -0.52569604 0.82604825 0.49066037 0.4054058 0.018132044 -0.76396084 -0.66266966 0.20919088 -0.82176906 -0.042962864 -0.037387904 -0.6668552 0.03147456 0.3664005 0.5807268 -0.3078998 0.4528425 0.16457435 0.27956054 0.56615597 -0.12589571 0.092997335 0.32935342 0.08965114 -0.25612968 -0.1576696 0.3879589 -0.6086661 -0.48902303 0.03257445 0.42061317 -0.31948856 0.68194216 -0.41109255 -0.255565 0.065500125 0.06013878 -0.4309709 -0.08405945 0.16520005 0.011955053 0.23134299 -0.46072137 -0.7658015 -0.59494764 0.107850306
363 0.4123136 -0.5318423 -0.042294536 -0.34927827 0.11450559 -0.38411665 -0.4164019 0.08328885 -0.86207134 -0.32032493 0.09179495 -0.40812737 0.23467392 -0.37132174 0.17534012 0.14619127 -0.78889585 0.4751703 0.13793783 0.38750604 0.33667234 -0.73714525 -0.3168371 -0.12029099 -0.13532677 0.83472484 -0.34829807 0.39116868 0.30230016 -0.1544506 -0.2895531 -0.13068725 0.0969483 -0.28371426 -0.34671965 0.41617826 0.26293242 -0.28846216 0.36583376 -0.1695475 -0.29719967 0.3987126 -0.6382145 -0.7953299 0.17484552 0.048431788 0.25448787 -0.07636731 -0.27988666 0.08680689 0.15204099 -0.0028929152 -0.45958114 0.14066488 0.16607068 -0.69407684 -0.3278381 0.055102408 -0.059737407 0.7867129 0.2374542 -0.6211827 -0.3700747 0.44625303
3838 0.44236764 -0.102864124 0.7555479 0.14712341 -0.24156436 -0.64903945 -0.018789077 0.52382386 -0.3305363 -0.48766294 1.3589653 0.42635995 0.17558582 -0.5575802 0.24722885 -0.09665437 -0.7058025 -0.46189538 -0.15155949 0.4625557 0.47026086 0.652169 0.0063029528 -0.7674793 -0.9175093 0.1465639 -0.6825562 -0.105792806 -0.095967226 -0.65853 0.19138843 -0.20120342 0.37410158 -0.41426665 0.3088128 0.34828234 0.4407007 0.5519758 0.066774964 -0.07143423 0.106957674 0.10075594 -0.06757474 0.05484611 0.012702718 -0.64174587 -0.27382058 -0.18436536 0.35450822 -0.1499731 0.96368515 -0.71018666 0.33674127 -0.50045514 0.32870108 -0.5634144 -0.1069456 0.25327867 -0.105733484 0.10373677 -0.14798081 -0.36607528 -0.6037957 0.07118706
1613 0.39714667 -0.7322084 0.08281342 -0.29404518 0.07462399 -0.30898497 0.16826975 -0.11125888 -0.7713087 -0.06608464 0.3309129 -0.7276381 -0.13311888 -0.013922516 0.18546867 0.1499363 -0.77700156 -0.09831668 0.38407695 0.77864647 0.38176078 0.42873707 -0.33936873 -0.11198287 -0.21245676 0.19293731 -0.24232852 -0.18514588 0.1382544 -0.027762096 0.15186825 -0.033376534 -0.2375779 -0.038758233 -0.21441251 0.6730012 -0.3158511 -0.35250375 -0.17852503 0.20274252 0.1976282 0.29067045 -0.824507 -0.115451634 0.73538136 0.027007261 -0.08624353 -0.2549599 -0.17310447 0.16296197 0.096825145 0.23259258 0.5793413 0.027669482 0.028588336 -0.14715976 -0.3924318 -0.2320176 -0.030835096 -0.123656 -0.38186902 -0.5103801 0.056573313 0.38327107
1399 0.59915537 -0.79379976 0.34825334 -0.086840205 -0.011940363 -0.49638274 0.029094957 -0.09293773 -0.60633767 0.095867634 0.23712361 -0.94114536 -0.20521961 -0.005381279 0.051836208 0.20505899 -0.40019044 -0.15527615 0.34902 0.72033477 0.47170344 0.24471317 -0.094806485 -0.11483054 -0.047915827 0.08618077 -0.009130259 -0.23203401 0.16133237 0.004555135 0.40659562 -0.011960987 -0.05023764 -0.21593413 0.086307555 0.7505269 -0.18651511 -0.30996653 -0.2777658 0.40654907 0.08447889 0.2597094 -1.0009685 -0.0047919992 0.76862013 0.18691339 -0.06273324 -0.5180008 -0.1361904 0.021014232 0.25638464 0.32439756 0.18825266 0.0877935 0.086418025 -0.025510937 -0.31130746 -0.49535856 -0.28825474 0.22757697 -0.26784977 -0.6302782 -0.07499225 0.12987587
513 0.727066 -0.71631885 -0.034242027 -0.058838025 -0.35604382 -0.5479406 -0.3457845 -0.09388361 -1.0207456 -0.40773672 0.20128913 -0.32961202 0.079572946 -0.41887692 -0.10902283 0.06952992 -0.92373693 0.36189505 0.18032312 -0.21092628 0.40183708 -0.5470626 -0.07890442 -0.26927903 -0.26839012 0.34599575 -0.45077267 0.02057138 0.54223543 -0.23447049 0.05153207 -0.008680961 -0.24320498 -0.25062746 -0.21191034 0.15416978 0.27332985 -0.29257923 0.46903217 -0.37946412 -0.45335278 0.43278044 -0.33247918 -0.95640177 0.044547863 -0.25148866 0.29649463 0.1266663 -0.0029317527 0.24075677 0.5685471 -0.037820593 0.033292275 -0.05087588 0.3482029 -0.68666905 0.21815786 -0.14672595 0.19346163 1.0080311 -0.07739814 -0.29287556 -0.29818344 0.5127549
830 1.5150414 -0.61129993 0.03467008 -0.7018956 -0.17057522 0.044858653 0.19749507 0.44629595 -0.43048704 0.011367381 0.96678257 0.23212962 0.42081085 0.33400527 0.07071879 1.2260648 0.04267806 -0.87149733 -0.24712692 0.24993286 0.30422726 0.45353562 0.1943835 -0.4441602 -0.24520175 0.5804933 0.19269165 0.15848427 -0.48074475 -0.37304744 -0.31679246 -0.17117567 0.13914895 -0.04594173 -0.3981234 -0.18482715 0.09508 0.09943475 -0.17200865 -0.26342848 -0.17030072 0.89523643 -0.3418597 -0.59063005 0.88882047 -0.5891697 -0.38356915 -0.022957852 -0.34716985 -0.15123144 0.77770716 -0.28190628 -0.26641703 0.46264368 0.2984951 -1.0094676 0.34169355 -0.7185745 0.43500602 0.15350093 -0.802519 0.017831352 -0.20053609 0.051761713
2384 0.70478594 -0.25241515 0.4276404 0.51676697 0.13380645 0.12498159 0.22989377 -0.34525916 -0.9580078 0.37623426 0.72339773 -0.5173885 -0.31337667 -0.46508792 0.043844942 0.19596206 -0.5065367 0.05829429 -0.49501628 0.08710401 -0.11186858 0.37960643 0.25272778 -0.20140214 0.42777058 0.6752473 -0.18998341 0.16240656 -0.8768524 -0.3040829 -0.03629796 -0.015730513 0.26778993 -0.2243662 0.36813125 0.058636617 -0.14384478 -0.16047603 -0.063267864 0.025880396 0.03530328 0.7651792 0.46791223 0.24341007 0.09561801 -0.13631009 -0.8803432 -0.1261621 -0.51805997 0.38737985 -0.10895973 -0.2665195 0.2526428 -0.28703296 -0.13987131 -0.54364395 0.2696412 -0.13337672 -0.06840397 0.21551926 -0.27714172 -0.6546705 -0.18590517 -0.2025491
823 1.3322332 -0.5282543 0.3149786 -0.6608044 -0.22066282 0.25827044 0.22156787 0.06981692 -0.6879498 0.2054819 1.125081 0.18511401 0.19939233 0.21217464 0.1938241 0.9021153 -0.008248911 -0.89582086 -0.20868212 0.30120456 0.6011713 0.2769095 0.30083862 0.009818409 -0.551113 0.43753445 0.10976374 0.045531698 -0.3361909 -0.3394012 -0.37936047 -0.65698195 0.054281678 -0.043464173 -0.6529925 -0.10744194 0.14435747 0.09533011 -0.037406236 -0.025487354 -0.30199197 0.8344017 -0.39036846 -0.49299195 1.001425 -0.42736349 -0.35083562 0.105261505 -0.17077121 -0.39049065 0.4916254 -0.16891581 -0.24225357 0.29989725 0.13757508 -1.1363771 0.8757786 -0.7651198 0.2987646 0.056626216 -0.73852867 -0.02200278 -0.26214692 0.22106294
1610 0.43256497 -0.9490897 0.22387727 -0.12502153 0.11569468 -0.37903622 0.0885651 -0.07545286 -0.60764223 -0.15960655 0.48910007 -0.7995743 -0.16085143 -0.24487554 -0.0017643978 0.07164777 -0.59198815 -0.20433284 0.39733735 0.7346216 0.39845964 0.24204141 -0.32173207 -0.05788622 -0.15232757 0.29077485 0.00881973 -0.01331883 0.20386335 0.07956341 0.50834435 -0.011638776 -0.3058776 -0.39229226 0.12783648 0.6358202 -0.16325156 -0.3235278 -0.4179308 0.11254512 0.04826312 0.33881223 -1.0335828 -0.0645055 0.6307492 0.1771565 -0.006805239 -0.3155451 -0.13888158 0.14938569 0.056365684 0.138576 0.37218934 0.41005448 -0.118605 -0.039512765 -0.30511945 -0.23409341 -0.22209413 0.10605674 -0.356833 -0.58425945 0.09642236 0.31790197
366 0.5025855 -0.5002012 0.17823254 -0.22717959 -0.18279576 -0.4756062 -0.12823637 -0.062374312 -1.125496 -0.33385423 0.094193004 -0.44933245 0.045952242 -0.2711171 -0.019948998 0.4736759 -0.6471729 0.50427574 0.29774666 0.28750414 0.543873 -0.59610593 0.04540577 -0.005640941 -0.23074144 0.4072406 -0.23357686 -0.03144609 0.30333042 -0.17464064 -0.19750954 -0.10121287 0.09432219 -0.17977332 -0.266458 0.29828167 0.24938303 -0.27987272 0.3916511 -0.06659968 -0.10578482 0.45754322 -0.5842708 -0.8114095 -0.06478881 -0.16460924 0.24910203 -0.23905994 -0.31047824 -0.033275943 0.1531787 0.099236906 -0.4886818 -0.17870139 0.382621 -0.4723519 -0.30236548 -0.08211037 -0.04660928 1.143287 0.21190014 -0.58078736 -0.029791351 0.64221317
2793 0.2451565 0.34176844 0.17924824 0.014021383 0.16793701 0.21725334 0.12173776 -0.102035835 -0.37806633 0.13264449 1.1045113 0.4904383 0.108401634 0.00084473606 -0.623277 0.34189746 -0.3073136 -0.1898556 0.13226016 0.2187916 0.8561767 0.16718203 -0.2767643 -0.23745126 -0.4096675 0.7049417 -0.46095967 -0.028859707 -0.40941665 -0.25699213 -0.09256537 -0.049929265 -0.20481572 0.03622979 -0.15596305 0.6785166 0.20424458 0.104831815 -0.6145134 0.05817851 0.17712756 0.3474444 -0.01334872 -0.10176336 0.14438142 -0.14057823 -0.03580304 -0.595811 -0.0067004347 0.45490357 0.37939215 0.78160405 -0.40484655 -0.27337253 -0.13945979 0.10165398 -0.05094886 -1.0193663 -0.80795133 0.55618566 -0.5822663 0.13750416 -0.44165778 -0.6685639
2661 0.27251542 0.24330993 0.12114269 -0.079667106 0.29317072 -0.09195178 -0.008060756 0.0009399616 -0.5260197 -0.037440546 0.9391402 0.62813205 0.17929569 -0.1980496 -0.84119684 0.30861035 -0.40204906 -0.05423445 0.014178346 0.11563617 0.7639676 0.06734238 -0.41980883 -0.30434498 -0.30415204 1.0264103 -0.39913943 -0.043341506 -0.025071304 -0.29934403 -0.14069393 -0.041071862 -0.17953347 0.15576817 -0.30743873 0.6821826 0.33403 -0.16979225 -0.82309705 -0.10509145 -0.017802449 0.030334651 -0.13555098 -0.3745483 0.26388362 -0.19788308 -0.1192413 -0.59596556 -0.06029512 0.43254852 0.22331804 0.5652093 -0.5077904 -0.2149059 0.045357488 -0.029242048 0.025861505 -0.8936986 -0.688532 0.48018116 -0.37707433 0.14245358 -0.14543568 -0.72064584
3851 0.41471967 -0.19357675 0.58243 -0.13221909 -0.018683 -0.6398424 0.45852336 0.5886098 -0.36676764 -0.1945315 0.95311177 0.58783966 0.38901037 -0.4324112 0.24656661 -0.3592044 -0.62017363 -0.24003382 -0.5703423 0.6816008 0.4362662 0.7099457 -0.22094353 -0.67249036 -0.5602291 0.47961792 -0.70068574 0.015691888 0.1866712 -0.37084562 0.20584509 0.07655648 0.45788303 -0.4152071 0.3577964 0.21791969 0.26472148 0.7151884 -0.025833672 0.214035 0.08730409 -0.12788366 -0.3401003 -0.1482987 0.100648925 -0.24292776 -0.60078627 0.040795524 0.40025404 -0.35210016 0.8737802 -0.5244093 -0.017355295 -0.2789624 0.20167255 -0.68348706 -0.18424572 0.05218572 -0.19702406 0.16036002 -0.41790712 -0.46000713 -0.51284385 0.088623144
2719 0.26156658 0.43256813 0.2228257 -0.05491578 0.03433216 -0.11101798 -0.13882506 -0.38272977 -0.36021987 -0.23620379 1.0528216 0.5288623 0.23885266 -0.23083916 -0.75707674 0.5647974 -0.32935184 -0.06115258 -0.02548186 -4.0275838e-05 0.5256339 0.21474616 -0.47253034 -0.14571129 -0.46431696 0.77104396 -0.4453581 -0.15832058 -0.34844443 -0.5347478 0.03368526 0.25830603 -0.251653 0.08282761 -0.39851165 0.52251875 0.026204418 -0.009239961 -0.44245902 -0.05447444 0.10451153 0.28915936 -0.11062599 -0.35545787 0.39343342 -0.32612866 -0.038972523 -0.5865054 -0.1662502 0.27528265 0.4142928 0.4853527 -0.38830575 -0.13057655 -0.043426152 0.102268524 -0.16699316 -0.7054393 -0.726825 0.7492813 -0.46572697 0.07002003 -0.16338317 -0.91401637
2111 0.8856986 -0.13554883 0.40548822 0.33813795 0.007578046 0.0754239 0.44031286 -0.43433267 -0.9919499 0.10046859 0.5288684 -0.70376897 -0.25984523 -0.45073903 0.03690316 0.2564724 -0.58442676 -0.029365825 -0.5370989 0.16970028 0.080340065 0.53682786 0.17981659 0.032984674 0.36516017 0.4511451 -0.10773141 0.20768586 -0.75730723 -0.3595687 0.03750604 0.11839925 0.096051075 -0.24011448 0.2635192 0.015012139 0.0051403544 -0.10159283 0.14707312 -0.100257844 -0.031292982 0.57138425 0.75553 0.2045518 0.05247823 -0.17251655 -0.8948651 -0.2174887 -0.39030537 0.48067096 -0.1299273 -0.04852971 0.19180703 -0.2718905 -0.26300576 -0.541577 -0.01560653 -0.3294159 -0.16222239 0.16479751 -0.24120687 -0.5145076 -0.12272148 -0.018739974
1622 0.3430055 -0.68455493 0.032399572 -0.16766253 -0.04646452 -0.2696826 -0.056394234 -0.18597306 -0.8916432 0.13349432 0.26698235 -0.71972483 0.18951152 -0.16200374 0.077207476 0.20886248 -0.6174422 -0.053177588 0.29008797 0.69806856 0.5775205 0.6319935 -0.16785468 -0.12553477 -0.056553394 0.1929359 -0.05764979 -0.25845626 0.12733439 0.032357227 0.4406176 -0.062007327 -0.32814068 -0.055847544 -0.14354476 0.5559385 0.03532309 -0.33383414 -0.37938666 0.19597952 0.13182038 0.310659 -0.795215 -0.2167909 0.70973086 0.07089847 0.016495401 -0.42490613 -0.22088125 0.27174926 -0.05112139 0.28950343 0.2962938 0.13631286 0.31776828 -0.14410594 -0.4397387 -0.20064434 -0.26083583 -0.03135644 -0.27519682 -0.6418071 -0.055597752 0.30257514
1391 0.56349736 -0.55117184 0.24087031 0.13159928 0.064690806 -0.30736104 -0.001932009 -0.1901769 -0.65397394 0.020317392 0.3259021 -0.7476188 -0.067093536 -0.16126096 0.03266981 0.22870159 -0.6679567 -0.19450173 0.54304177 0.7534308 0.5238287 0.4034997 -0.23035045 -0.25181958 -0.04208389 -0.018485365 -0.20511974 -0.2775108 0.15639965 -0.047344904 0.55941796 0.01599118 -0.2879772 -0.43070802 -0.115524404 0.64664626 -0.2654829 -0.2895171 -0.3137822 0.12060998 0.20261607 0.26481235 -0.8367365 -0.14986293 0.4951289 0.110426694 0.07523186 -0.33821368 -0.13619438 -0.06849503 0.12556668 0.19578479 0.3785014 0.14985251 0.32760403 -0.07986105 -0.401942 -0.2936309 -0.22784743 0.02569264 -0.24248649 -0.7359212 -0.10853809 0.20839456
2730 -0.017667087 0.017402783 0.34611443 -0.29641593 -0.2051278 0.05827626 -0.4748196 -0.28722218 -0.5421865 0.17793466 1.1087687 0.489625 0.624417 -0.38735756 -0.43409488 0.30219644 -0.62031823 -0.031404905 0.029026104 -0.011744341 0.92340666 0.020373745 -0.20089631 -0.28860798 -0.2859804 0.57993144 -1.000857 -0.32524812 -0.10057528 0.1060996 -0.060451254 -0.11566323 -0.25861472 -0.016452879 -0.21712738 -0.12759212 -0.16797327 0.10517519 -0.42986163 0.023091314 0.4092506 0.07331032 0.18117648 -0.3088286 0.2562483 0.26989654 -0.24784832 -0.4542833 -0.6412709 0.19796972 0.6938837 0.916071 0.28691754 -0.040389486 -0.10337926 -0.05999337 -0.0013726011 -1.1719993 -0.64010626 0.1608699 -0.37182388 0.020447502 -0.58238554 -0.46364108
553 0.48641407 -0.46506375 0.24082145 -0.04885651 -0.15972465 -0.68222904 -0.29024953 -0.26499406 -0.7692322 -0.7199106 -0.09350739 -0.42779994 0.12648404 -0.5412189 -0.112763 0.40087605 -0.5917132 0.4108211 0.04680108 -0.090599366 -0.013658236 -0.44040433 -0.17721733 -0.47915372 -0.18498176 0.3978094 -0.51034284 -0.03382911 0.28537187 -0.41484436 -0.1311999 0.16441877 -0.204519 -0.29762748 -0.14267595 0.06440319 0.18995483 -0.5951626 0.5375565 -0.042016402 -0.3843359 0.45921698 -0.20121084 -0.71862894 0.54016924 -0.46550524 0.5613885 -0.06764211 0.0070503475 0.09746992 0.5301381 0.0698017 -0.32501397 0.070212886 0.2646894 -0.9812239 0.13998258 -0.55429447 0.11682616 0.9559372 0.14714365 -0.46798956 -0.31408688 0.6723097
1941 0.98369807 0.17802832 0.68694794 0.37557355 -0.13871586 -0.2983549 0.33630598 -0.35156438 -0.97380704 0.4445302 0.43902105 -0.4756613 0.12753908 -0.45563203 0.21149315 0.1487838 -0.4235766 0.3253748 -0.3074289 0.24011719 -0.4115326 0.19547272 -0.24679501 -0.16508478 0.31125534 0.70077205 0.07240794 0.23072138 -0.56713283 -0.41872665 -0.41692644 -0.13102686 0.39104825 -0.7529733 0.2740531 0.22575761 -0.31405893 -0.6743094 0.16859062 0.046043545 0.1557985 0.46121246 0.32901177 0.37974745 0.05903448 -0.22887596 -0.7877576 -0.08612416 -0.18199056 0.062043283 0.037586983 -0.17248446 0.09673122 -0.15696132 -0.4459562 -0.46707076 -0.1528628 -0.48693997 -0.3321431 -0.37960342 -0.38975784 -0.26175365 -0.59892946 -0.55950516
694 1.5011735 -0.55047977 0.087704636 -0.62486935 0.06609633 0.19709231 0.123603925 0.38033658 -0.8673847 -0.03629837 1.0389482 0.006319018 0.28154835 -0.12003659 0.38458994 1.078343 0.106153324 -1.1151109 -0.20774211 0.38629478 0.4119572 0.65198684 0.034025814 -0.13870415 -0.16875352 0.9600507 0.046429705 0.12941031 -0.20476769 -0.2660115 -0.25442642 -0.41990048 0.08393642 0.051443044 -0.72682804 -0.35423523 0.3150399 -0.1447739 -0.30974808 -0.06828803 -0.27748045 0.7922292 -0.3221965 -0.49081203 0.5049559 -0.5635097 -0.10490886 0.38433957 -0.07499938 -0.2791855 0.4652686 -0.026147163 -0.17074805 0.29825902 0.1523637 -0.92014784 0.31859592 -0.91648793 0.37724254 0.12106177 -0.77293164 0.48251274 -0.47706816 0.17433086
1211 0.37312368 -0.6951674 0.43277815 -0.10842281 0.07236212 -0.481392 0.08123562 -0.09449534 -0.6774078 0.030768955 0.53974724 -0.9804037 -0.15557884 -0.030021071 0.08684433 0.21626222 -0.6093155 -0.12673463 0.23248333 0.785921 0.35748518 0.5111506 -0.10673289 -0.21404976 -0.22756256 0.09836534 0.022520576 -0.3216988 0.06913394 0.09963043 0.22108927 0.084664315 -0.08895728 -0.3663416 0.031057073 0.55388796 -0.10698685 -0.289197 -0.18235704 0.023027502 -0.049978048 0.12913676 -0.9442522 -0.1178809 0.6951697 0.108636305 0.107868195 -0.3581276 -0.34623584 0.04959226 0.041995164 0.31120247 0.35817286 0.10964687 0.019769024 -0.0020993047 -0.23529992 -0.12503587 -0.16845372 0.124172755 -0.34688765 -0.6270569 0.08931677 0.1569675
697 1.46932 -0.4937414 -0.1305351 -0.58291954 -0.3927067 0.42380202 0.5905399 0.26700288 -0.7695469 0.09885788 0.9760788 0.28110453 0.11336576 0.13202754 0.09004746 1.3462766 0.07395316 -0.9814561 -0.19861284 0.13772471 0.69985116 0.47429335 0.0385576 -0.019923097 -0.4246261 0.54264283 0.250514 0.10100498 -0.3370613 -0.5500759 -0.48773378 -0.116542175 0.028443996 -0.07771292 -0.35894662 -0.08360219 0.3988659 0.088104874 -0.08119207 -0.17857689 -0.037165377 0.80934566 -0.6851794 -0.36426565 0.7189863 -0.6996525 -0.19273545 -0.02263908 -0.11538389 -0.27756327 0.6723605 -0.13822515 -0.37477127 0.42906764 0.011495042 -1.0164723 0.8137634 -0.5867037 0.24426772 0.16795914 -0.55318916 -0.07718746 -0.20026247 0.14043604
2716 0.5117014 0.423942 0.5199717 -0.064229935 0.5830559 0.34848964 0.022274282 -0.40284753 -0.42562187 -0.18003686 1.0245016 0.45148686 0.54910856 -0.28558066 -0.5464358 0.09460017 -0.5667162 -0.1329473 0.06147265 -0.060768288 0.83163935 0.10519007 -0.37867156 -0.024158174 -0.39350423 0.5609701 -0.5676387 -0.2488203 -0.4012941 -0.18488905 0.12581412 0.094174325 -0.19845198 -0.0422155 -0.21909681 0.448669 0.24601935 0.0022659926 -0.63290596 -0.05574994 0.20147298 0.13512917 -0.021260824 -0.47759342 0.08447757 0.08857603 -0.14771624 -0.4184597 -0.17299087 0.51342225 0.3926246 0.90142316 -0.29112273 -0.24192141 -0.059518393 -0.13313125 0.14295596 -0.9956846 -0.6169098 0.7050934 -0.13280383 0.1144815 -0.12383498 -0.59718406
3154 0.19505987 0.017964497 0.3414603 -0.29596475 0.16286781 -0.07450942 -0.20947877 -0.1800838 -0.7899754 0.12289828 1.3511757 0.70329964 0.5090767 0.14826591 -0.51768494 0.40974417 -0.45040837 0.2789768 -0.2188395 0.14316027 0.8287302 0.35095802 -0.1643004 -0.14384992 -0.622229 0.51989293 -0.6602275 -0.37456164 -0.24336591 -0.17033285 0.2907495 -0.04306687 -0.38549474 0.14497235 -0.20805497 0.26202184 0.22058491 0.032187946 -0.7221624 -0.042622536 0.06890953 0.1278945 0.1479752 -0.011599298 0.11045872 0.29671568 0.11595045 -0.5684154 -0.50953835 0.151489 0.13440374 0.71134675 -0.20258094 -0.18640089 -0.37946838 0.10826478 -0.0024218932 -0.9745862 -0.33517942 0.6321506 -0.39932278 0.23699482 -0.35929754 -0.244354
3495 0.53421235 -0.16496608 0.70065993 -0.18831111 -0.4371795 -0.39926288 0.4761531 0.43907112 -0.3496626 0.001731782 1.0498519 0.74663883 -0.07789168 -0.6461308 0.1977565 -0.2049017 -1.0297792 -0.42248 -0.40005848 0.8114877 0.48394865 0.5312048 0.32415342 -0.7898116 -0.53957236 0.0009316485 -0.6399084 -0.17422277 0.030062655 -0.48470852 0.34565175 0.11362117 0.4497178 -0.27134937 0.35977888 0.061778504 0.31191468 0.4045275 0.045847718 0.40319344 -0.034112733 0.15381794 -0.34105876 -0.25222114 0.3239526 -0.5486564 -0.5829033 0.25851077 0.34924388 -0.30729267 0.83116263 -0.1490729 -0.278702 0.087223254 0.44674748 -0.5346472 -0.0036323743 0.23947418 0.08518507 0.16200176 -0.5161938 -0.14969143 -0.6096827 -0.06520403
2778 0.17720395 0.2835931 0.1252091 -0.07139511 0.012300319 -0.28231734 -0.27993616 -0.521301 -0.43118235 -0.020189375 1.073701 0.44837642 0.34869936 -0.28105667 -0.74461323 0.45268962 -0.5562622 -0.117093325 -0.05480461 0.05590334 0.64258146 0.23586237 -0.46066305 -0.18329884 -0.45479253 0.70141435 -0.62748003 -0.22110307 -0.21753085 -0.54153615 -0.054660916 -0.14166035 -0.02171119 0.40078253 -0.31818196 0.43047842 -0.012186471 -0.020286927 -0.49615723 -0.081512414 0.20814587 0.2239968 0.08923242 -0.58070034 0.33229882 -0.36867434 0.17036125 -0.71989065 -0.20978174 0.19963889 0.24656984 0.42848727 -0.35886672 -0.23295219 0.10070932 0.10628124 -0.011755201 -0.6311084 -0.5447935 0.49397385 -0.3919457 -0.058738854 -0.014421976 -1.0319037
4030 1.0677445 -0.29360923 0.54133916 0.56433254 -0.3940835 -0.5669078 0.14021614 -0.1720342 -0.7045093 -0.13671719 1.3614975 -0.84432024 0.5497923 -0.2821594 -0.70753527 -0.22282894 -0.9556228 0.18470268 -0.40634307 -0.32564646 0.45792723 0.498557 -0.07019798 -0.27871588 -0.05199693 1.0653298 -0.71246636 0.10644322 -0.73288727 -1.1814673 0.7800056 -0.86209106 -0.42292154 0.21843255 0.9423577 -0.09420724 0.6869988 -0.40534264 -0.42954546 0.61954033 -0.42468783 -0.4870461 -0.5295941 0.4315244 0.08733788 0.13441163 0.77251714 0.060886122 -0.12629108 0.15738787 1.0232925 -0.16833468 -0.21434543 0.4104264 0.012588613 -0.2016286 0.24672222 -0.556998 -0.64749914 1.0733821 0.37018865 -0.23561282 -0.49300277 0.5163113
1551 0.59492344 -0.557193 0.33582518 -0.14128877 -0.17007303 -0.38092747 0.26463965 -0.1633145 -0.7694884 -0.063315295 0.122630745 -0.6591588 -0.1613984 0.023585135 0.06975152 0.18808793 -0.55039084 -0.28586218 0.21893261 0.7782924 0.49653208 0.35466555 -0.16740674 0.0025802953 -0.093951456 0.15947889 -0.2061375 -0.30590692 0.20029548 0.116820596 0.5922599 0.07058621 -0.12347133 -0.55554825 -0.3077422 0.49958616 -0.24665292 -0.4759768 -0.3455893 0.10257789 0.10452723 0.37114257 -0.76065105 -0.2195677 0.6382506 0.16062208 0.0425888 -0.33902135 -0.4584959 0.07734948 0.04499789 0.34348238 0.43832016 0.32358068 0.104499236 -0.16464248 -0.35412467 -0.239968 -0.15290801 0.116853125 -0.4056443 -0.52426183 -0.1299548 0.24765547
1471 0.4387094 -0.8662601 0.27014077 -0.09703454 -0.02272208 -0.27382854 0.1343167 0.03231506 -0.6393393 -0.05498835 0.512698 -0.63779473 -0.049134757 -0.26921144 -0.2290306 0.28422812 -0.4452839 -0.3186117 0.25158507 0.9774984 0.20256765 0.35443622 0.014253427 0.2583631 -0.125324 0.16434431 -0.35935163 -0.17434406 0.061835933 0.10090756 0.25425276 -0.028819993 -0.13287479 -0.13928477 -0.001370555 0.5424048 -0.2463519 -0.49543554 -0.26948833 0.08848411 0.1364812 0.17353971 -1.0055665 -0.081519864 0.7933638 0.052587487 0.029111845 -0.5539994 -0.09081129 0.41965687 0.013337727 0.22823152 0.3895691 0.25447106 -0.07558039 0.067382954 -0.5172556 -0.26656014 -0.011804685 0.32156724 -0.4618279 -0.6427834 0.16635278 0.29509008
2199 0.7325973 -0.099417046 0.39687335 0.27519345 -0.1499496 0.07407895 0.4015839 -0.46155202 -0.9012072 0.1152357 0.7243063 -0.54313487 0.0011268591 -0.54827666 0.16205496 0.23895994 -0.6680465 -0.087411515 -0.52190226 0.17524713 -0.06742195 0.4016686 0.40485683 -0.009342834 0.43659264 0.459464 -0.0037553732 0.103561535 -0.58022755 -0.28737244 -0.14757608 -0.2859258 0.11790288 -0.40516376 0.31643042 0.1487984 -0.040094547 -0.3267641 -0.13723215 -0.22094412 0.2710683 0.58134437 0.71877986 0.19781362 -0.07261807 -0.12265622 -0.84828794 -0.29803687 -0.39407218 0.56000155 -0.17400174 -0.028794793 0.20410764 -0.3113614 -0.23693134 -0.7557531 -0.11776806 -0.2543608 -0.18306848 -0.16985023 -0.22288258 -0.50940305 -0.039621513 0.13380468
